svm_type c_svc
kernel_type rbf
gamma 0.041666666666666664
nr_class 7
total_sv 1400
rho 0.0010093450546264648 -0.058520466089248657 -0.0082452893257141113 0.0051815807819366455 -0.017944484949111938 -0.036104321479797363 -0.012095123529434204 -0.0051245391368865967 0.018137127161026001 0.014701694250106812 -0.036387026309967041 0.0028864145278930664 0.043868392705917358 0.023609757423400879 0.015123993158340454 0.017324626445770264 0.0052936673164367676 -0.0083493590354919434 -0.019877433776855469 -0.0061961710453033447 0.0025876462459564209
label 0 1 2 3 4 5 6
nr_sv 200 200 200 200 200 200 200
SV
0 1 1 1 1 1 1:0.532825 2:0.188994 3:0.277453 4:0.266586 5:0.277674 6:0.188994 7:0.169041 8:0.114262 9:0.122079 10:0.110981 11:0.122079 12:0.109304 13:0.422312 14:0.160059 15:0.044392 16:0.140381 17:0.133639 18:0.110981 19:0.045759 20:0.110981 21:0.045759 22:0.110981 23:0.133639 24:0.145973 
1 1 1 1 1 1 1:0.527714 2:0.187181 3:0.274792 4:0.275011 5:0.275011 6:0.198155 7:0.16742 8:0.113166 9:0.120908 10:0.098925 11:0.120908 12:0.108255 13:0.418261 14:0.158524 15:0.043967 16:0.139035 17:0.132357 18:0.109917 19:0.056047 20:0.120908 21:0.043967 22:0.110465 23:0.147878 24:0.155446 
0 1 1 1 1 1 1:0.534556 2:0.178378 3:0.278395 4:0.255919 5:0.279062 6:0.189485 7:0.174164 8:0.114559 9:0.122396 10:0.100142 11:0.122396 12:0.105559 13:0.422969 14:0.160475 15:0.045877 16:0.151342 17:0.141623 18:0.111269 19:0.044508 20:0.111269 21:0.045877 22:0.111824 23:0.133986 24:0.148452 
0 1 1 1 1 1 1:0.53684 2:0.179257 3:0.268362 4:0.268595 5:0.268595 6:0.190418 7:0.175022 8:0.110127 9:0.111817 10:0.100636 11:0.111817 12:0.106079 13:0.425053 14:0.161265 15:0.044727 16:0.141439 17:0.134646 18:0.111817 19:0.057016 20:0.111817 21:0.044727 22:0.112375 23:0.150435 24:0.160098 
0 1 1 1 1 1 1:0.537694 2:0.179425 3:0.268614 4:0.257665 5:0.28003 6:0.179076 7:0.175186 8:0.120544 9:0.123115 10:0.10073 11:0.111922 12:0.106179 13:0.425452 14:0.161417 15:0.044769 16:0.141572 17:0.134772 18:0.111922 19:0.046147 20:0.111922 21:0.044769 22:0.112481 23:0.143331 24:0.160248 
1 1 1 1 1 1 1:0.526128 2:0.186296 3:0.274184 4:0.263235 5:0.285135 6:0.186619 7:0.171529 8:0.10793 9:0.120545 10:0.098628 11:0.109586 12:0.09363 13:0.427527 14:0.158047 15:0.055878 16:0.146206 17:0.13948 18:0.109586 19:0.054793 20:0.110133 21:0.043834 22:0.121042 23:0.147433 24:0.156904 
0 1 1 1 1 1 1:0.530445 2:0.187825 3:0.276214 4:0.265395 5:0.288111 6:0.187825 7:0.16313 8:0.108816 9:0.122035 10:0.100049 11:0.121534 12:0.098821 13:0.41999 14:0.153491 15:0.033146 16:0.139754 17:0.14149 18:0.121534 19:0.044194 20:0.121534 21:0.044194 22:0.122035 23:0.140625 24:0.147406 
0 1 1 1 1 1 1:0.525623 2:0.186439 3:0.273703 4:0.262982 5:0.273921 6:0.186118 7:0.181223 8:0.117915 9:0.120429 10:0.098533 11:0.120429 12:0.107826 13:0.427116 14:0.157896 15:0.043792 16:0.138484 17:0.131833 18:0.109481 19:0.04514 20:0.120429 21:0.043792 22:0.110027 23:0.147292 24:0.167474 
0 1 1 1 1 1 1:0.533581 2:0.178169 3:0.277846 4:0.266964 5:0.278734 6:0.178169 7:0.173959 8:0.1197 9:0.122252 10:0.100025 11:0.111139 12:0.105435 13:0.422473 14:0.160286 15:0.044455 16:0.14058 17:0.133829 18:0.122252 19:0.045824 20:0.122252 21:0.045824 22:0.111693 23:0.142327 24:0.148277 
0 1 1 1 1 1 1:0.525434 2:0.186372 3:0.273823 4:0.26266 5:0.285389 6:0.186372 7:0.171303 8:0.107788 9:0.120882 10:0.098498 11:0.120386 12:0.107788 13:0.426963 14:0.152041 15:0.032833 16:0.138434 17:0.140154 18:0.120882 19:0.054721 20:0.109442 21:0.043777 22:0.120882 23:0.147239 24:0.156697 
0 1 1 1 1 1 1:0.520832 2:0.188343 3:0.276975 4:0.255058 5:0.277197 6:0.188669 7:0.168751 8:0.114065 9:0.121869 10:0.099711 11:0.121869 12:0.109116 13:0.432649 14:0.169114 15:0.044316 16:0.150691 17:0.141013 18:0.11079 19:0.044316 20:0.111343 21:0.044316 22:0.111343 23:0.141881 24:0.156681 
0 1 1 1 1 1 1:0.527014 2:0.175976 3:0.274427 4:0.263679 5:0.285615 6:0.186933 7:0.171819 8:0.108112 9:0.120748 10:0.099402 11:0.109771 12:0.104138 13:0.428247 14:0.158314 15:0.043908 16:0.13885 17:0.132182 18:0.120748 19:0.043908 20:0.120748 21:0.043908 22:0.121246 23:0.147682 24:0.157168 
1 1 1 1 1 1 1:0.517545 2:0.176026 3:0.286043 4:0.264268 5:0.286254 6:0.198335 7:0.172203 8:0.113269 9:0.121018 10:0.099015 11:0.121018 12:0.104371 13:0.418207 14:0.158668 15:0.044007 16:0.139161 17:0.140028 18:0.121018 19:0.045361 20:0.121018 21:0.044007 22:0.121517 23:0.148012 24:0.15752 
1 1 1 1 1 1 1:0.523602 2:0.178555 3:0.278449 4:0.267543 5:0.278672 6:0.189345 7:0.174337 8:0.119959 9:0.11138 10:0.100858 11:0.11138 12:0.105664 13:0.423389 14:0.160634 15:0.044552 16:0.140885 17:0.134119 18:0.122518 19:0.05569 20:0.11138 21:0.044552 22:0.123023 23:0.149846 24:0.159471 
1 1 1 1 1 1 1:0.518645 2:0.187749 3:0.275846 4:0.275625 5:0.286862 6:0.187749 7:0.162782 8:0.108584 9:0.121275 10:0.099225 11:0.1108 12:0.115105 13:0.419531 14:0.174321 15:0.055125 16:0.149956 17:0.140326 18:0.11025 19:0.055125 20:0.121275 21:0.055125 22:0.1108 23:0.141189 24:0.145011 
1 1 1 1 1 1 1:0.527962 2:0.187147 3:0.274742 4:0.274742 5:0.285943 6:0.187147 7:0.162261 8:0.108236 9:0.120886 10:0.109897 11:0.120886 12:0.108236 13:0.418186 14:0.158495 15:0.043959 16:0.13901 17:0.132333 18:0.109897 19:0.043959 20:0.120886 21:0.043959 22:0.121385 23:0.147851 24:0.146621 
0 1 1 1 1 1 1:0.532006 2:0.188378 3:0.277026 4:0.255105 5:0.277248 6:0.188378 7:0.168782 8:0.12389 9:0.121892 10:0.09973 11:0.121892 12:0.109136 13:0.421226 14:0.153943 15:0.044324 16:0.137065 17:0.141039 18:0.110811 19:0.045688 20:0.110811 21:0.033243 22:0.122394 23:0.14908 24:0.158657 
1 1 1 1 1 1 1:0.520162 2:0.188101 3:0.27684 4:0.265785 5:0.27684 6:0.188426 7:0.173191 8:0.108975 9:0.110648 10:0.099583 11:0.111199 12:0.10497 13:0.431668 14:0.168896 15:0.055324 16:0.147622 17:0.140831 18:0.110648 19:0.055324 20:0.111199 21:0.055324 22:0.111199 23:0.141698 24:0.156479 
1 1 1 1 1 1 1:0.533508 2:0.185376 3:0.272359 4:0.261482 5:0.283863 6:0.185376 7:0.170387 8:0.107211 9:0.120236 10:0.097971 11:0.108857 12:0.10327 13:0.425098 14:0.163285 15:0.055506 16:0.148061 17:0.138552 18:0.108857 19:0.054428 20:0.109399 21:0.054428 22:0.109399 23:0.139404 24:0.153946 
0 1 1 1 1 1 1:0.535185 2:0.178588 3:0.278501 4:0.267361 5:0.279391 6:0.189381 7:0.159501 8:0.114694 9:0.123046 10:0.10026 11:0.12254 12:0.105684 13:0.423907 14:0.160664 15:0.04456 16:0.140911 17:0.134144 18:0.1114 19:0.04456 20:0.12254 21:0.04456 22:0.111956 23:0.134144 24:0.146524 
0 1 1 1 1 1 1:0.529058 2:0.187658 3:0.275492 4:0.275712 5:0.275712 6:0.187658 7:0.167846 8:0.113454 9:0.121216 10:0.110746 11:0.121216 12:0.108531 13:0.419327 14:0.158928 15:0.044079 16:0.139389 17:0.132694 18:0.110197 19:0.044079 20:0.121216 21:0.044079 22:0.110746 23:0.141121 24:0.155842 
0 1 1 1 1 1 1:0.520832 2:0.188343 3:0.276975 4:0.255058 5:0.277197 6:0.188669 7:0.168751 8:0.114065 9:0.121869 10:0.099711 11:0.121869 12:0.109116 13:0.432649 14:0.169114 15:0.044316 16:0.150691 17:0.141013 18:0.11079 19:0.04568 20:0.11079 21:0.044316 22:0.111343 23:0.141881 24:0.156681 
1 1 1 1 1 1 1:0.523895 2:0.189779 3:0.278604 4:0.267692 5:0.278827 6:0.189779 7:0.174434 8:0.109757 9:0.111442 10:0.100915 11:0.122586 12:0.109757 13:0.424065 14:0.160724 15:0.044577 16:0.140964 17:0.134194 18:0.111442 19:0.055721 20:0.111442 21:0.055721 22:0.111998 23:0.142715 24:0.157603 
0 1 1 1 1 1 1:0.535973 2:0.174866 3:0.273228 4:0.262527 5:0.274101 6:0.197028 7:0.156481 8:0.112522 9:0.120716 10:0.098967 11:0.12022 12:0.103683 13:0.426796 14:0.166826 15:0.043716 16:0.148652 17:0.139105 18:0.109291 19:0.043716 20:0.12022 21:0.043716 22:0.109836 23:0.147036 24:0.14375 
1 1 1 1 1 1 1:0.528058 2:0.186858 3:0.275011 4:0.264029 5:0.286628 6:0.198155 7:0.16229 8:0.113166 9:0.121407 10:0.098925 11:0.110465 12:0.104276 13:0.417828 14:0.158524 15:0.043967 16:0.139035 17:0.147878 18:0.120908 19:0.056047 20:0.109917 21:0.043967 22:0.121407 23:0.147878 24:0.146647 
1 1 1 1 1 1 1:0.529114 2:0.176218 3:0.286355 4:0.264557 5:0.287201 6:0.198551 7:0.157691 8:0.113392 9:0.12165 10:0.099733 11:0.12115 12:0.104485 13:0.419098 14:0.158841 15:0.055068 16:0.136231 17:0.132622 18:0.110136 19:0.055068 20:0.110136 21:0.044055 22:0.12165 23:0.148173 24:0.144862 
1 1 1 1 1 1 1:0.52937 2:0.187647 3:0.286494 4:0.264685 5:0.276355 6:0.198648 7:0.162693 8:0.108524 9:0.110739 10:0.099781 11:0.121209 12:0.108524 13:0.419301 14:0.158918 15:0.044076 16:0.13938 17:0.132686 18:0.121209 19:0.044076 20:0.121209 21:0.055095 22:0.110739 23:0.148245 24:0.144932 
1 1 1 1 1 1 1:0.527271 2:0.179334 3:0.291634 4:0.269235 5:0.281105 6:0.190872 7:0.16048 8:0.115397 9:0.123801 10:0.100876 11:0.123292 12:0.095765 13:0.415316 14:0.152451 15:0.046213 16:0.141776 17:0.14266 18:0.123292 19:0.044834 20:0.123801 21:0.044834 22:0.112643 23:0.143538 24:0.147423 
1 1 1 1 1 1 1:0.528473 2:0.187005 3:0.275008 4:0.264236 5:0.286219 6:0.198311 7:0.167552 8:0.113255 9:0.121003 10:0.099003 11:0.110003 12:0.104358 13:0.41859 14:0.158649 15:0.044001 16:0.139144 17:0.147994 18:0.121003 19:0.056091 20:0.110003 21:0.045355 22:0.121003 23:0.140011 24:0.144686 
0 1 1 1 1 1 1:0.523617 2:0.174388 3:0.283589 4:0.261808 5:0.273351 6:0.196489 7:0.1706 8:0.112214 9:0.120386 10:0.098093 11:0.120386 12:0.103399 13:0.425209 14:0.166369 15:0.043597 16:0.148245 17:0.138724 18:0.119891 19:0.043597 20:0.120386 21:0.043597 22:0.109536 23:0.146634 24:0.156053 
0 1 1 1 1 1 1:0.528385 2:0.17609 3:0.275141 4:0.264135 5:0.27602 6:0.187419 7:0.167633 8:0.11331 9:0.121561 10:0.110056 11:0.121062 12:0.104409 13:0.429784 14:0.158726 15:0.044023 16:0.139212 17:0.140079 18:0.110056 19:0.044023 20:0.110056 21:0.033017 22:0.121561 23:0.148066 24:0.157577 
0.29850835885163363 1 1 1 1 1 1:0.525426 2:0.179056 3:0.279229 4:0.268293 5:0.280122 6:0.190204 7:0.174825 8:0.110004 9:0.122861 10:0.101141 11:0.111692 12:0.10596 13:0.424576 14:0.161084 15:0.044677 16:0.14128 17:0.134495 18:0.122861 19:0.044677 20:0.122861 21:0.046052 22:0.112249 23:0.14216 24:0.149015 
1 1 1 1 1 1 1:0.522502 2:0.177833 3:0.278086 4:0.266749 5:0.289832 6:0.189274 7:0.17397 8:0.109466 9:0.122764 10:0.100031 11:0.111145 12:0.094963 13:0.422499 14:0.151174 15:0.045826 16:0.140589 17:0.141465 18:0.12226 19:0.055573 20:0.111145 21:0.044458 22:0.122764 23:0.149531 24:0.159136 
1 1 1 1 1 1 1:0.521729 2:0.188668 3:0.277674 4:0.266586 5:0.289403 6:0.188994 7:0.163862 8:0.109304 9:0.122583 10:0.110981 11:0.122079 12:0.099264 13:0.421874 14:0.15418 15:0.045759 16:0.148067 17:0.141256 18:0.110981 19:0.044392 20:0.111535 21:0.044392 22:0.122583 23:0.14931 24:0.148067 
1 1 1 1 1 1 1:0.528673 2:0.187521 3:0.275291 4:0.264509 5:0.287148 6:0.187521 7:0.172359 8:0.118599 9:0.121128 10:0.099105 11:0.110116 12:0.104466 13:0.419021 14:0.165175 15:0.055058 16:0.139287 17:0.132598 18:0.110116 19:0.056149 20:0.110116 21:0.045402 22:0.121628 23:0.148146 24:0.146914 
1 1 1 1 1 1 1:0.521344 2:0.188854 3:0.277469 4:0.266158 5:0.278134 6:0.188854 7:0.173585 8:0.109223 9:0.111452 10:0.099809 11:0.110899 12:0.105208 13:0.433075 14:0.166349 15:0.05545 16:0.140278 17:0.13354 18:0.111452 19:0.05545 20:0.110899 21:0.05545 22:0.111452 23:0.14202 24:0.156835 
1 1 1 1 1 1 1:0.526977 2:0.186798 3:0.274229 4:0.274448 5:0.275105 6:0.186798 7:0.171695 8:0.108034 9:0.110239 10:0.110239 11:0.120661 12:0.108034 13:0.428359 14:0.158199 15:0.043877 16:0.13875 17:0.132086 18:0.109692 19:0.043877 20:0.120661 21:0.054846 22:0.110239 23:0.140474 24:0.155127 
0 1 1 1 1 1 1:0.515769 2:0.175422 3:0.274316 4:0.274316 5:0.274973 6:0.197654 7:0.171612 8:0.11288 9:0.1211 10:0.109639 11:0.1211 12:0.104013 13:0.427732 14:0.167356 15:0.043856 16:0.149125 17:0.139547 18:0.109639 19:0.043856 20:0.1211 21:0.043856 22:0.110186 23:0.147504 24:0.156979 
1 1 1 1 1 1 1:0.524416 2:0.18964 3:0.279105 4:0.267726 5:0.279773 6:0.189967 7:0.164706 8:0.109867 9:0.112109 10:0.111553 11:0.122708 12:0.099776 13:0.424487 14:0.160884 15:0.045994 16:0.151728 17:0.141983 18:0.111553 19:0.044621 20:0.111553 21:0.055776 22:0.112109 23:0.142857 24:0.146725 
1 1 1 1 1 1 1:0.513679 2:0.190121 3:0.279108 4:0.268176 5:0.291129 6:0.190121 7:0.174749 8:0.109956 9:0.122807 10:0.101097 11:0.122807 12:0.109956 13:0.424831 14:0.161014 15:0.044657 16:0.141219 17:0.134436 18:0.111643 19:0.055822 20:0.111643 21:0.046032 22:0.123314 23:0.142098 24:0.14895 
1 1 1 1 1 1 1:0.521697 2:0.188982 3:0.277657 4:0.266569 5:0.288746 6:0.188982 7:0.173702 8:0.109297 9:0.122072 10:0.100491 11:0.110974 12:0.105279 13:0.422286 14:0.166461 15:0.056586 16:0.150941 17:0.141247 18:0.110974 19:0.055487 20:0.110974 21:0.056586 22:0.110974 23:0.133631 24:0.145964 
1 1 1 1 1 1 1:0.524218 2:0.178644 3:0.278587 4:0.27881 5:0.279477 6:0.189767 7:0.15955 8:0.114729 9:0.123084 10:0.111991 11:0.122578 12:0.105716 13:0.424039 14:0.160714 15:0.044574 16:0.140955 17:0.134185 18:0.111435 19:0.044574 20:0.122578 21:0.044574 22:0.111991 23:0.142706 24:0.14657 
0 1 1 1 1 1 1:0.53327 2:0.177949 3:0.277504 4:0.255545 5:0.27839 6:0.177949 7:0.173745 8:0.109324 9:0.122605 10:0.100516 11:0.122102 12:0.105305 13:0.433048 14:0.160089 15:0.044401 16:0.140407 17:0.133664 18:0.111002 19:0.044401 20:0.111002 21:0.044401 22:0.111555 23:0.142151 24:0.15893 
0 1 1 1 1 1 1:0.526643 2:0.179121 3:0.268914 4:0.268914 5:0.2801 6:0.190645 7:0.160289 8:0.11526 9:0.123145 10:0.100755 11:0.112509 12:0.106206 13:0.426 14:0.170885 15:0.04478 16:0.152269 17:0.14249 18:0.11195 19:0.04478 20:0.123653 21:0.04478 22:0.112509 23:0.143367 24:0.147248 
0 1 1 1 1 1 1:0.525245 2:0.186306 3:0.273506 4:0.262794 5:0.285287 6:0.186306 7:0.171242 8:0.107749 9:0.120839 10:0.099068 11:0.109402 12:0.103788 13:0.42681 14:0.157782 15:0.043761 16:0.138384 17:0.140103 18:0.120343 19:0.043761 20:0.120343 21:0.043761 22:0.120839 23:0.147186 24:0.15664 
0 1 1 1 1 1 1:0.520897 2:0.188565 3:0.277044 4:0.26575 5:0.277707 6:0.188565 7:0.168657 8:0.114002 9:0.122304 10:0.099656 11:0.121802 12:0.109055 13:0.432411 14:0.159696 15:0.044292 16:0.140062 17:0.133335 18:0.111281 19:0.044292 20:0.121802 21:0.044292 22:0.111281 23:0.141802 24:0.156594 
0 1 1 1 1 1 1:0.528122 2:0.175888 3:0.275045 4:0.264061 5:0.275045 6:0.187204 7:0.16744 8:0.11318 9:0.120923 10:0.098937 11:0.121422 12:0.104289 13:0.42929 14:0.167801 15:0.043972 16:0.149521 17:0.139918 18:0.10993 19:0.043972 20:0.121422 21:0.043972 22:0.110478 23:0.140779 24:0.155464 
0 1 1 1 1 1 1:0.521576 2:0.184884 3:0.282484 4:0.260562 5:0.271636 6:0.195723 7:0.169935 8:0.111777 9:0.119424 10:0.097711 11:0.119917 12:0.113348 13:0.423552 14:0.165721 15:0.043427 16:0.147668 17:0.146063 18:0.119424 19:0.043427 20:0.119424 21:0.043427 22:0.109109 23:0.146063 24:0.155445 
1 1 1 1 1 1 1:0.527262 2:0.175944 3:0.285353 4:0.263631 5:0.286196 6:0.197552 7:0.167168 8:0.122705 9:0.120726 10:0.099384 11:0.120726 12:0.104119 13:0.417631 14:0.158285 15:0.0439 16:0.138825 17:0.132158 18:0.120726 19:0.0439 20:0.120726 21:0.045252 22:0.121224 23:0.13969 24:0.144355 
1 1 1 1 1 1 1:0.524963 2:0.185884 3:0.273577 4:0.273577 5:0.274232 6:0.186205 7:0.17115 8:0.107691 9:0.109889 10:0.098409 11:0.109889 12:0.103732 13:0.427 14:0.172887 15:0.054672 16:0.148723 17:0.139172 18:0.109343 19:0.054672 20:0.120774 21:0.054672 22:0.109889 23:0.140028 24:0.154635 
0 1 1 1 1 1 1:0.52587 2:0.175138 3:0.273872 4:0.262935 5:0.274528 6:0.197334 7:0.171334 8:0.112697 9:0.120904 10:0.098515 11:0.110007 12:0.103844 13:0.42704 14:0.167085 15:0.043785 16:0.148884 17:0.139322 18:0.120407 19:0.043785 20:0.120904 21:0.043785 22:0.110007 23:0.147265 24:0.156725 
1 1 1 1 1 1 1:0.521826 2:0.177482 3:0.277538 4:0.277538 5:0.278202 6:0.188901 7:0.168958 8:0.114206 9:0.122019 10:0.110926 11:0.122522 12:0.105234 13:0.422104 14:0.15998 15:0.044371 16:0.140312 17:0.141186 18:0.110926 19:0.044371 20:0.122522 21:0.044371 22:0.113123 23:0.142055 24:0.156874 
1 1 1 1 1 1 1:0.533073 2:0.188633 3:0.277623 4:0.266536 5:0.277623 6:0.188959 7:0.173681 8:0.109283 9:0.110961 10:0.099864 11:0.12256 12:0.109283 13:0.422234 14:0.16003 15:0.044384 16:0.140355 17:0.14123 18:0.110961 19:0.05548 20:0.111514 21:0.056579 22:0.110961 23:0.133614 24:0.145946 
1 1 1 1 1 1 1:0.52331 2:0.189567 3:0.278294 4:0.267394 5:0.278516 6:0.189567 7:0.169554 8:0.114608 9:0.122449 10:0.111317 11:0.122449 12:0.109635 13:0.423592 14:0.160544 15:0.044527 16:0.140807 17:0.134044 18:0.111317 19:0.045897 20:0.111317 21:0.044527 22:0.111873 23:0.142556 24:0.157427 
1 1 1 1 1 1 1:0.516982 2:0.187147 3:0.274742 4:0.274962 5:0.286576 6:0.187147 7:0.172016 8:0.108236 9:0.120886 10:0.098907 11:0.109897 12:0.104257 13:0.42916 14:0.173762 15:0.054948 16:0.149476 17:0.132333 18:0.109897 19:0.056037 20:0.120886 21:0.056037 22:0.110445 23:0.132333 24:0.144547 
0 1 1 1 1 1 1:0.526083 2:0.17893 3:0.268395 4:0.268628 5:0.279802 6:0.190442 7:0.175044 8:0.115137 9:0.123014 10:0.100648 11:0.111831 12:0.106093 13:0.425106 14:0.161285 15:0.044733 16:0.141457 17:0.142338 18:0.111831 19:0.044733 20:0.123522 21:0.044733 22:0.112389 23:0.143214 24:0.160118 
0 1 1 1 1 1 1:0.52064 2:0.188274 3:0.276873 4:0.266029 5:0.277095 6:0.188599 7:0.168688 8:0.114023 9:0.132899 10:0.110749 11:0.121824 12:0.109075 13:0.420993 14:0.153858 15:0.033225 16:0.140088 17:0.148998 18:0.121824 19:0.033225 20:0.122327 21:0.033225 22:0.111302 23:0.148998 24:0.158569 
1 1 1 1 1 1 1:0.525525 2:0.189912 3:0.279505 4:0.268343 5:0.280174 6:0.179089 7:0.174858 8:0.110024 9:0.122884 10:0.100541 11:0.11227 12:0.10598 13:0.425096 14:0.167569 15:0.055856 16:0.141307 17:0.142187 18:0.111713 19:0.056963 20:0.111713 21:0.04606 22:0.11227 23:0.13452 24:0.149043 
0 1 1 1 1 1 1:0.52995 2:0.176841 3:0.275997 4:0.264745 5:0.276657 6:0.198865 7:0.157941 8:0.113572 9:0.121842 10:0.099279 11:0.110861 12:0.115168 13:0.41976 14:0.168382 15:0.044124 16:0.150039 17:0.140402 18:0.121342 19:0.044124 20:0.121342 21:0.044124 22:0.110861 23:0.148408 24:0.145091 
0 1 1 1 1 1 1:0.530823 2:0.177132 3:0.276451 4:0.265411 5:0.277113 6:0.199193 7:0.16314 8:0.113759 9:0.122043 10:0.100055 11:0.121541 12:0.104822 13:0.420016 14:0.159354 15:0.045557 16:0.150286 17:0.140634 18:0.110492 19:0.044197 20:0.121541 21:0.044197 22:0.111043 23:0.148652 24:0.147415 
0 1 1 1 1 1 1:0.534522 2:0.178367 3:0.278156 4:0.26703 5:0.279044 6:0.189473 7:0.159303 8:0.114552 9:0.122893 10:0.100136 11:0.111262 12:0.105553 13:0.423382 14:0.160465 15:0.044505 16:0.140737 17:0.133978 18:0.122389 19:0.044505 20:0.122389 21:0.044505 22:0.111817 23:0.142485 24:0.146343 
0 1 1 1 1 1 1:0.530628 2:0.177068 3:0.276129 4:0.265314 5:0.27635 6:0.19912 7:0.172884 8:0.113717 9:0.121497 10:0.099407 11:0.110452 12:0.104784 13:0.419862 14:0.159296 15:0.044181 16:0.139712 17:0.133001 18:0.121497 19:0.04554 20:0.121497 21:0.044181 22:0.111003 23:0.148598 24:0.158143 
0 1 1 1 1 1 1:0.532941 2:0.177839 3:0.277333 4:0.266471 5:0.278219 6:0.188912 7:0.168968 8:0.124027 9:0.122027 10:0.09984 11:0.110933 12:0.10524 13:0.42213 14:0.15999 15:0.044373 16:0.140321 17:0.133581 18:0.122027 19:0.045739 20:0.122027 21:0.045739 22:0.111487 23:0.142064 24:0.14591 
0 1 1 1 1 1 1:0.528569 2:0.17638 3:0.286271 4:0.264055 5:0.275936 6:0.198347 7:0.162447 8:0.113276 9:0.121524 10:0.099021 11:0.121025 12:0.104377 13:0.418232 14:0.158678 15:0.045364 16:0.149648 17:0.140036 18:0.121025 19:0.044009 20:0.121025 21:0.044009 22:0.110572 23:0.148021 24:0.146789 
0 1 1 1 1 1 1:0.524743 2:0.185806 3:0.273244 4:0.262542 5:0.285014 6:0.186127 7:0.171078 8:0.107646 9:0.120723 10:0.098973 11:0.109298 12:0.103689 13:0.426401 14:0.157631 15:0.043719 16:0.138252 17:0.147045 18:0.120228 19:0.043719 20:0.120228 21:0.043719 22:0.120723 23:0.147045 24:0.156491 
1 1 1 1 1 1 1:0.522985 2:0.188994 3:0.278154 4:0.267046 5:0.289903 6:0.189321 7:0.164145 8:0.099436 9:0.122794 10:0.100056 11:0.111727 12:0.105468 13:0.423042 14:0.166759 15:0.055586 16:0.140624 17:0.1415 18:0.111173 19:0.055586 20:0.111727 21:0.044469 22:0.122794 23:0.1415 24:0.148323 
0 1 1 1 1 1 1:0.52921 2:0.18759 3:0.275391 4:0.264605 5:0.287253 6:0.18759 7:0.172422 8:0.108492 9:0.121172 10:0.099141 11:0.121172 12:0.108492 13:0.41874 14:0.153034 15:0.033047 16:0.139338 17:0.141069 18:0.121172 19:0.045419 20:0.121172 21:0.045419 22:0.121672 23:0.140206 24:0.146967 
0 1 1 1 1 1 1:0.532058 2:0.177545 3:0.276873 4:0.266029 5:0.277095 6:0.188599 7:0.17335 8:0.109075 9:0.121824 10:0.099674 11:0.110749 12:0.105066 13:0.420993 14:0.159725 15:0.0443 16:0.140088 17:0.13336 18:0.121824 19:0.045663 20:0.121824 21:0.0443 22:0.111302 23:0.148998 24:0.158569 
1 1 1 1 1 1 1:0.522244 2:0.188726 3:0.277538 4:0.266668 5:0.288853 6:0.189052 7:0.173766 8:0.109337 9:0.122117 10:0.099914 11:0.111015 12:0.105318 13:0.422004 14:0.160108 15:0.055508 16:0.137318 17:0.141299 18:0.111015 19:0.055508 20:0.111569 21:0.055508 22:0.111569 23:0.142169 24:0.156999 
1 1 1 1 1 1 1:0.523439 2:0.189485 3:0.278395 4:0.267278 5:0.278395 6:0.189485 7:0.164287 8:0.109587 9:0.122396 10:0.100142 11:0.111269 12:0.105559 13:0.423408 14:0.166904 15:0.056736 16:0.151342 17:0.141623 18:0.111269 19:0.055635 20:0.111824 21:0.044508 22:0.111824 23:0.149697 24:0.148452 
1 1 1 1 1 1 1:0.527304 2:0.190555 3:0.280452 4:0.269252 5:0.280452 6:0.190884 7:0.1655 8:0.110397 9:0.1233 10:0.100882 11:0.112091 12:0.095771 13:0.414888 14:0.15246 15:0.046216 16:0.141785 17:0.150803 18:0.1233 19:0.044836 20:0.123809 21:0.044836 22:0.11265 23:0.150803 24:0.149548 
1 1 1 1 1 1 1:0.521121 2:0.188646 3:0.277163 4:0.266094 5:0.288232 6:0.188646 7:0.16356 8:0.109102 9:0.121854 10:0.099699 11:0.110777 12:0.105092 13:0.421534 14:0.166165 15:0.056485 16:0.150672 17:0.140996 18:0.110777 19:0.055388 20:0.111329 21:0.044311 22:0.122357 23:0.149035 24:0.147794 
1 1 1 1 1 1 1:0.513796 2:0.185673 3:0.283971 4:0.273267 5:0.284181 6:0.185994 7:0.170956 8:0.107569 9:0.120141 10:0.098298 11:0.10922 12:0.103615 13:0.426096 14:0.166716 15:0.05461 16:0.145717 17:0.139014 18:0.120141 19:0.055691 20:0.120141 21:0.05461 22:0.109764 23:0.139869 24:0.15446 
1 1 1 1 1 1 1:0.517045 2:0.18717 3:0.285977 4:0.263784 5:0.28661 6:0.198143 7:0.16228 8:0.113159 9:0.1214 10:0.098919 11:0.120901 12:0.10427 13:0.417803 14:0.158514 15:0.045317 16:0.149494 17:0.147869 18:0.120901 19:0.054955 20:0.10991 21:0.043964 22:0.1214 23:0.147869 24:0.146638 
1 1 1 1 1 1 1:0.526628 2:0.186352 3:0.274267 4:0.263314 5:0.285852 6:0.186675 7:0.161851 8:0.107962 9:0.121078 10:0.099264 11:0.110166 12:0.103994 13:0.427655 14:0.167326 15:0.05481 16:0.14625 17:0.139522 18:0.109619 19:0.05481 20:0.109619 21:0.043848 22:0.121078 23:0.147477 24:0.14625 
0 1 1 1 1 1 1:0.524521 2:0.185928 3:0.273169 4:0.26226 5:0.284708 6:0.196828 7:0.166299 8:0.112408 9:0.120594 10:0.098262 11:0.10918 12:0.103578 13:0.426363 14:0.157462 15:0.043672 16:0.138104 17:0.139819 18:0.120594 19:0.043672 20:0.120594 21:0.043672 22:0.120594 23:0.146887 24:0.154404 
0 1 1 1 1 1 1:0.527962 2:0.183334 3:0.280117 4:0.258603 5:0.280117 6:0.194083 7:0.163979 8:0.11084 9:0.118423 10:0.096892 11:0.118912 12:0.112398 13:0.420417 14:0.164332 15:0.043063 16:0.14643 17:0.144839 18:0.118423 19:0.053829 20:0.108195 21:0.043063 22:0.118912 23:0.144839 24:0.152251 
1 1 1 1 1 1 1:0.527994 2:0.186836 3:0.274758 4:0.263997 5:0.28596 6:0.198131 7:0.172026 8:0.122876 9:0.120894 10:0.098913 11:0.109903 12:0.104263 13:0.417777 14:0.158505 15:0.054952 16:0.135943 17:0.139884 18:0.109903 19:0.05604 20:0.109903 21:0.045314 22:0.120894 23:0.14786 24:0.146629 
0 1 1 1 1 1 1:0.527748 2:0.18326 3:0.280003 4:0.258498 5:0.280003 6:0.194897 7:0.168443 8:0.110795 9:0.118375 10:0.096853 11:0.118375 12:0.102092 13:0.419833 14:0.155203 15:0.04437 16:0.146371 17:0.14478 18:0.118375 19:0.043046 20:0.118864 21:0.043046 22:0.118864 23:0.152948 24:0.15408 
0 1 1 1 1 1 1:0.528023 2:0.183039 3:0.280149 4:0.258633 5:0.280149 6:0.193806 7:0.163998 8:0.120379 9:0.118437 10:0.096903 11:0.118926 12:0.102145 13:0.420465 14:0.164351 15:0.043068 16:0.146447 17:0.144855 18:0.118437 19:0.053835 20:0.108207 21:0.043068 22:0.118926 23:0.144855 24:0.152269 
1 1 1 1 1 1 1:0.517649 2:0.183294 3:0.291115 4:0.269551 5:0.28054 6:0.194376 7:0.168765 8:0.111008 9:0.118602 10:0.097038 11:0.118602 12:0.102287 13:0.421051 14:0.16173 15:0.05391 16:0.136383 17:0.137233 18:0.118602 19:0.05391 20:0.118602 21:0.043128 22:0.119091 23:0.145057 24:0.154375 
1 1 1 1 1 1 1:0.529114 2:0.187556 3:0.275561 4:0.264327 5:0.286566 6:0.198551 7:0.162614 8:0.113392 9:0.12115 10:0.099123 11:0.110136 12:0.104485 13:0.419098 14:0.165205 15:0.055068 16:0.139313 17:0.132622 18:0.110686 19:0.055068 20:0.110136 21:0.044055 22:0.12165 23:0.148173 24:0.14694 
1 1 1 1 1 1 1:0.517107 2:0.187193 3:0.286012 4:0.264045 5:0.286012 6:0.198167 7:0.1623 8:0.113173 9:0.120916 10:0.098931 11:0.120916 12:0.104282 13:0.417853 14:0.158534 15:0.045323 16:0.149512 17:0.147887 18:0.120916 19:0.054962 20:0.110472 21:0.043969 22:0.121414 23:0.147887 24:0.146656 
1 1 1 1 1 1 1:0.52966 2:0.187749 3:0.275625 4:0.26483 5:0.287497 6:0.187749 7:0.172569 8:0.118743 9:0.121275 10:0.099225 11:0.121275 12:0.108584 13:0.419096 14:0.153164 15:0.0441 16:0.136372 17:0.132759 18:0.11025 19:0.056217 20:0.11025 21:0.045457 22:0.121775 23:0.148326 24:0.147092 
1 1 1 1 1 1 1:0.528449 2:0.187442 3:0.286181 4:0.264167 5:0.287027 6:0.198431 7:0.162516 8:0.113324 9:0.121576 10:0.099063 11:0.121077 12:0.104421 13:0.41841 14:0.158745 15:0.055035 16:0.136149 17:0.132541 18:0.11007 19:0.055035 20:0.11007 21:0.055035 22:0.110619 23:0.140958 24:0.144774 
1 1 1 1 1 1 1:0.527739 2:0.186746 3:0.274626 4:0.26387 5:0.285822 6:0.198035 7:0.171943 8:0.113098 9:0.120835 10:0.098865 11:0.10985 12:0.104213 13:0.417576 14:0.158428 15:0.054925 16:0.135877 17:0.139817 18:0.10985 19:0.056013 20:0.10985 21:0.04394 22:0.121334 23:0.147788 24:0.157282 
1 1 1 1 1 1 1:0.53024 2:0.187631 3:0.275927 4:0.26512 5:0.287177 6:0.187955 7:0.172758 8:0.108703 9:0.121408 10:0.099334 11:0.110371 12:0.104707 13:0.419555 14:0.159179 15:0.055185 16:0.136521 17:0.140479 18:0.110371 19:0.055185 20:0.110921 21:0.055185 22:0.110921 23:0.141344 24:0.156088 
1 1 1 1 1 1 1:0.524865 2:0.18605 3:0.273349 4:0.27313 5:0.284895 6:0.18605 7:0.171007 8:0.107601 9:0.120673 10:0.098327 11:0.109252 12:0.103646 13:0.426223 14:0.157566 15:0.054626 16:0.135137 17:0.131557 18:0.109797 19:0.054626 20:0.120177 21:0.043701 22:0.120673 23:0.146984 24:0.156425 
1 1 1 1 1 1 1:0.523492 2:0.185563 3:0.283312 4:0.261519 5:0.284149 6:0.196442 7:0.170559 8:0.112188 9:0.120357 10:0.09807 11:0.119863 12:0.103375 13:0.425108 14:0.157154 15:0.054483 16:0.134784 17:0.131213 18:0.108966 19:0.054483 20:0.108966 21:0.043587 22:0.120357 23:0.146599 24:0.156016 
0 1 1 1 1 1 1:0.528249 2:0.187249 3:0.274891 4:0.264125 5:0.286098 6:0.187249 7:0.172109 8:0.108295 9:0.120952 10:0.098961 11:0.120952 12:0.108295 13:0.417979 14:0.152756 15:0.032987 16:0.139085 17:0.140813 18:0.120952 19:0.054978 20:0.110505 21:0.043983 22:0.121451 23:0.147931 24:0.157434 
1 1 1 1 1 1 1:0.526517 2:0.179199 3:0.291199 4:0.269032 5:0.280894 6:0.190728 7:0.175307 8:0.120627 9:0.1232 10:0.10142 11:0.1232 12:0.095692 13:0.41455 14:0.152336 15:0.0448 16:0.131092 17:0.134865 18:0.1232 19:0.056 20:0.112 21:0.046179 22:0.112558 23:0.15068 24:0.149426 
1 1 1 1 1 1 1:0.520412 2:0.184153 3:0.281854 4:0.260206 5:0.281854 6:0.195286 7:0.174669 8:0.11667 9:0.108325 10:0.097493 11:0.119649 12:0.102766 13:0.422607 14:0.165351 15:0.054163 16:0.144524 17:0.137875 18:0.108325 19:0.054163 20:0.108865 21:0.054163 22:0.119649 23:0.153959 24:0.155098 
1 1 1 1 1 1 1:0.530758 2:0.188138 3:0.276197 4:0.265379 5:0.287457 6:0.188138 7:0.172927 8:0.108809 9:0.121527 10:0.099431 11:0.110479 12:0.104809 13:0.419964 14:0.159335 15:0.055239 16:0.136655 17:0.133034 18:0.110479 19:0.056333 20:0.110479 21:0.055239 22:0.11103 23:0.141482 24:0.15624 
1 1 1 1 1 1 1:0.528885 2:0.187272 3:0.274925 4:0.264157 5:0.286133 6:0.198251 7:0.17213 8:0.113221 9:0.120967 10:0.098973 11:0.10997 12:0.104327 13:0.418464 14:0.164955 15:0.054985 16:0.139102 17:0.132421 18:0.10997 19:0.056074 20:0.10997 21:0.054985 22:0.110518 23:0.14083 24:0.155521 
1 1 1 1 1 1 1:0.526091 2:0.186484 3:0.273987 4:0.273987 5:0.28556 6:0.197417 7:0.171406 8:0.122433 9:0.120458 10:0.099163 11:0.109507 12:0.103888 13:0.416272 14:0.157934 15:0.054754 16:0.135453 17:0.131864 18:0.110053 19:0.054754 20:0.120458 21:0.045151 22:0.120955 23:0.147327 24:0.146101 
1 1 1 1 1 1 1:0.518741 2:0.183561 3:0.280741 4:0.270159 5:0.28157 6:0.194659 7:0.169011 8:0.116295 9:0.107977 10:0.108516 11:0.118775 12:0.102436 13:0.421665 14:0.16482 15:0.053989 16:0.14406 17:0.137433 18:0.107977 19:0.053989 20:0.107977 21:0.053989 22:0.120722 23:0.153465 24:0.152703 
1 1 1 1 1 1 1:0.520833 2:0.188216 3:0.276789 4:0.265948 5:0.288073 6:0.199595 7:0.173297 8:0.113989 9:0.121787 10:0.099644 11:0.110715 12:0.105034 13:0.420864 14:0.159676 15:0.055358 16:0.136947 17:0.140918 18:0.110715 19:0.055358 20:0.111268 21:0.055358 22:0.111268 23:0.141785 24:0.156575 
1 1 1 1 1 1 1:0.530952 2:0.188207 3:0.276298 4:0.265476 5:0.288199 6:0.199241 7:0.16318 8:0.113786 9:0.122072 10:0.100079 11:0.110519 12:0.104848 13:0.420118 14:0.159393 15:0.05526 16:0.136705 17:0.133083 18:0.110519 19:0.05526 20:0.110519 21:0.05526 22:0.11107 23:0.141534 24:0.145365 
0 1 1 1 1 1 1:0.533779 2:0.189332 3:0.277949 4:0.255955 5:0.278837 6:0.190309 7:0.169344 8:0.114467 9:0.122298 10:0.100062 11:0.122298 12:0.109499 13:0.422629 14:0.154456 15:0.044472 16:0.137522 17:0.133878 18:0.11118 19:0.045841 20:0.11118 21:0.035158 22:0.122802 23:0.149577 24:0.148332 
1 1 1 1 1 1 1:0.519466 2:0.188047 3:0.276283 4:0.265249 5:0.276283 6:0.199071 7:0.172842 8:0.113689 9:0.121467 10:0.099382 11:0.110976 12:0.104758 13:0.430798 14:0.168556 15:0.055212 16:0.147325 17:0.132969 18:0.110425 19:0.055212 20:0.110976 21:0.055212 22:0.099994 23:0.141413 24:0.156164 
1 1 1 1 1 1 1:0.527771 2:0.18708 3:0.285628 4:0.263885 5:0.285839 6:0.198047 7:0.171953 8:0.108197 9:0.109857 10:0.087886 11:0.109857 12:0.101283 13:0.418034 14:0.164785 15:0.065914 16:0.135886 17:0.132285 18:0.109857 19:0.066823 20:0.109857 21:0.065914 22:0.110405 23:0.140686 24:0.154192 
1 1 1 1 1 1 1:0.525461 2:0.18594 3:0.284378 4:0.262731 5:0.284588 6:0.197181 7:0.171201 8:0.11261 9:0.120314 10:0.098439 11:0.120314 12:0.103763 13:0.415773 14:0.157745 15:0.054688 16:0.135291 17:0.139213 18:0.109376 19:0.055771 20:0.109376 21:0.04375 22:0.12081 23:0.147151 24:0.156603 
1 1 1 1 1 1 1:0.519688 2:0.187802 3:0.276401 4:0.265363 5:0.288076 6:0.199156 7:0.16311 8:0.113738 9:0.12202 10:0.099425 11:0.111023 12:0.104803 13:0.419939 14:0.168628 15:0.055236 16:0.147388 17:0.140608 18:0.110472 19:0.055236 20:0.111023 21:0.044189 22:0.12202 23:0.148625 24:0.147388 
1 1 1 1 1 1 1:0.517076 2:0.186858 3:0.275011 4:0.264029 5:0.285995 6:0.187181 7:0.172047 8:0.108255 9:0.120908 10:0.098925 11:0.110465 12:0.104276 13:0.428816 14:0.167781 15:0.054958 16:0.146647 17:0.139901 18:0.109917 19:0.054958 20:0.110465 21:0.043967 22:0.121407 23:0.147878 24:0.157377 
1 1 1 1 1 1 1:0.52077 2:0.188193 3:0.276976 4:0.265915 5:0.288038 6:0.199571 7:0.173276 8:0.113975 9:0.121772 10:0.099632 11:0.111254 12:0.105021 13:0.420813 14:0.159656 15:0.055351 16:0.136931 17:0.1409 18:0.110702 19:0.055351 20:0.111254 21:0.055351 22:0.111254 23:0.141768 24:0.156556 
1 1 1 1 1 1 1:0.519625 2:0.188104 3:0.287192 4:0.276367 5:0.28804 6:0.199132 7:0.16309 8:0.108789 9:0.122005 10:0.099413 11:0.121504 12:0.108789 13:0.409293 14:0.159305 15:0.044183 16:0.13972 17:0.13301 18:0.121504 19:0.055229 20:0.122005 21:0.055229 22:0.111009 23:0.148607 24:0.145285 
1 1 1 1 1 1 1:0.521601 2:0.18882 3:0.277197 4:0.26634 5:0.289136 6:0.199889 7:0.173553 8:0.114157 9:0.121967 10:0.100405 11:0.110879 12:0.105189 13:0.421485 14:0.159911 15:0.055439 16:0.137149 17:0.133516 18:0.110879 19:0.055439 20:0.110879 21:0.045716 22:0.122469 23:0.141125 24:0.147931 
1 1 1 1 1 1 1:0.522985 2:0.189321 3:0.28905 4:0.267046 5:0.278154 6:0.20042 7:0.169698 8:0.109493 9:0.111173 10:0.100056 11:0.12229 12:0.105468 13:0.41149 14:0.160336 15:0.044469 16:0.140624 17:0.142371 18:0.12229 19:0.045838 20:0.12229 21:0.055586 22:0.111727 23:0.149568 24:0.148323 
1 1 1 1 1 1 1:0.514687 2:0.186317 3:0.284674 4:0.262809 5:0.284674 6:0.19724 7:0.171252 8:0.107755 9:0.109409 10:0.098468 11:0.120846 12:0.103794 13:0.427256 14:0.167005 15:0.054704 16:0.14597 17:0.131746 18:0.109409 19:0.054704 20:0.109955 21:0.054704 22:0.120846 23:0.147195 24:0.154728 
1 1 1 1 1 1 1:0.523058 2:0.195977 3:0.283077 4:0.261529 5:0.283287 6:0.196279 7:0.165835 8:0.112095 9:0.119763 10:0.097988 11:0.119763 12:0.10723 13:0.414301 14:0.157023 15:0.04355 16:0.137718 17:0.146478 18:0.119763 19:0.04355 20:0.120257 21:0.04355 22:0.120257 23:0.146478 24:0.153974 
1 1 1 1 1 1 1:0.520323 2:0.177317 3:0.287578 4:0.265687 5:0.276739 6:0.1994 7:0.173127 8:0.113877 9:0.121668 10:0.099546 11:0.121668 12:0.104931 13:0.420452 14:0.15952 15:0.044243 16:0.139908 17:0.133188 18:0.121668 19:0.045604 20:0.121668 21:0.044243 22:0.111159 23:0.148807 24:0.158365 
1 1 1 1 1 1 1:0.52026 2:0.188334 3:0.287543 4:0.265655 5:0.276705 6:0.199375 7:0.173106 8:0.113863 9:0.121653 10:0.099534 11:0.121653 12:0.104918 13:0.420401 14:0.1595 15:0.055297 16:0.136797 17:0.133172 18:0.110593 19:0.056392 20:0.110593 21:0.044237 22:0.111145 23:0.148788 24:0.158346 
1 1 1 1 1 1 1:0.509678 2:0.188507 3:0.287807 4:0.265899 5:0.28802 6:0.188507 7:0.173265 8:0.109022 9:0.121765 10:0.099626 11:0.121765 12:0.105015 13:0.420787 14:0.159647 15:0.044278 16:0.140019 17:0.141759 18:0.121765 19:0.044278 20:0.122267 21:0.044278 22:0.122267 23:0.148925 24:0.158491 
1 1 1 1 1 1 1:0.512766 2:0.178533 3:0.289551 4:0.26751 5:0.278637 6:0.200767 7:0.179572 8:0.109683 9:0.111366 10:0.100846 11:0.122502 12:0.105651 13:0.423336 14:0.160614 15:0.044546 16:0.140868 17:0.134102 18:0.122502 19:0.055683 20:0.111366 21:0.055683 22:0.111921 23:0.149827 24:0.159451 
1 1 1 1 1 1 1:0.522598 2:0.188854 3:0.277726 4:0.266849 5:0.277948 6:0.18918 7:0.173884 8:0.109412 9:0.1222 10:0.099981 11:0.111091 12:0.10539 13:0.422728 14:0.166636 15:0.055545 16:0.14052 17:0.141395 18:0.111091 19:0.056645 20:0.111091 21:0.044436 22:0.111645 23:0.149457 24:0.159057 
1 1 1 1 1 1 1:0.513148 2:0.189463 3:0.289981 4:0.267709 5:0.290623 6:0.200917 7:0.169754 8:0.114743 9:0.122594 10:0.100921 11:0.122594 12:0.095222 13:0.412962 14:0.151587 15:0.045951 16:0.140973 17:0.149939 18:0.122594 19:0.044579 20:0.122594 21:0.045951 22:0.123099 23:0.141851 24:0.146588 
1 1 1 1 1 1 1:0.517388 2:0.186971 3:0.286168 4:0.275178 5:0.275178 6:0.198275 7:0.172151 8:0.108321 9:0.109983 10:0.098985 11:0.12148 12:0.108321 13:0.418514 14:0.15862 15:0.043993 16:0.139119 17:0.139986 18:0.120981 19:0.054992 20:0.12148 21:0.054992 22:0.110532 23:0.147967 24:0.15554 
1 1 1 1 1 1 1:0.51868 2:0.183857 3:0.280916 4:0.270128 5:0.292303 6:0.194636 7:0.168991 8:0.106333 9:0.119251 10:0.097168 11:0.118761 12:0.102424 13:0.421615 14:0.155709 15:0.055051 16:0.144043 17:0.137417 18:0.107965 19:0.064779 20:0.108503 21:0.053982 22:0.119251 23:0.145252 24:0.152685 
1 1 1 1 1 1 1:0.529242 2:0.187277 3:0.275628 4:0.264621 5:0.28727 6:0.198599 7:0.172433 8:0.11342 9:0.121179 10:0.099147 11:0.110713 12:0.10451 13:0.419199 14:0.165245 15:0.055082 16:0.139347 17:0.140215 18:0.110163 19:0.055082 20:0.110713 21:0.056172 22:0.110713 23:0.132654 24:0.144897 
1 1 1 1 1 1 1:0.523115 2:0.178268 3:0.278001 4:0.267112 5:0.289335 6:0.189367 7:0.174056 8:0.10952 9:0.12232 10:0.10008 11:0.1112 12:0.102522 13:0.423146 14:0.166801 15:0.0556 16:0.140659 17:0.133903 18:0.1112 19:0.056701 20:0.1112 21:0.0556 22:0.111755 23:0.142406 24:0.157261 
1 1 1 1 1 1 1:0.514503 2:0.18625 3:0.273643 4:0.273643 5:0.284571 6:0.18625 7:0.171191 8:0.107717 9:0.120307 10:0.098433 11:0.109915 12:0.114185 13:0.427102 14:0.172929 15:0.054685 16:0.148759 17:0.139205 18:0.10937 19:0.055768 20:0.120307 21:0.054685 22:0.109915 23:0.140061 24:0.154672 
1 1 1 1 1 1 1:0.529638 2:0.187863 3:0.275793 4:0.264991 5:0.287037 6:0.187863 7:0.172674 8:0.10865 9:0.121349 10:0.099286 11:0.110317 12:0.104656 13:0.419786 14:0.165476 15:0.055159 16:0.139541 17:0.13284 18:0.110317 19:0.055159 20:0.110867 21:0.055159 22:0.110867 23:0.141275 24:0.156012 
1 1 1 1 1 1 1:0.51545 2:0.186719 3:0.285078 4:0.274333 5:0.285289 6:0.197666 7:0.171622 8:0.107988 9:0.12061 10:0.098681 11:0.12061 12:0.107988 13:0.417229 14:0.158133 15:0.043858 16:0.138692 17:0.132031 18:0.12061 19:0.055908 20:0.12061 21:0.054823 22:0.110192 23:0.147513 24:0.155062 
1 1 1 1 1 1 1:0.516164 2:0.186655 3:0.274713 4:0.274713 5:0.285684 6:0.186978 7:0.17186 8:0.108138 9:0.120777 10:0.098818 11:0.109797 12:0.093811 13:0.428772 14:0.164696 15:0.055986 16:0.149341 17:0.139749 18:0.109797 19:0.054899 20:0.121275 21:0.054899 22:0.110345 23:0.140609 24:0.155277 
1 1 1 1 1 1 1:0.521185 2:0.188343 3:0.277197 4:0.277197 5:0.27786 6:0.19973 7:0.173414 8:0.109116 9:0.111343 10:0.099711 11:0.11079 12:0.094659 13:0.421585 14:0.157462 15:0.056492 16:0.14014 17:0.141013 18:0.11079 19:0.066474 20:0.111343 21:0.055395 22:0.111343 23:0.149053 24:0.156681 
1 1 1 1 1 1 1:0.525839 2:0.175128 3:0.284793 4:0.262919 5:0.284793 6:0.197322 7:0.171324 8:0.112691 9:0.1204 10:0.098509 11:0.120897 12:0.103838 13:0.416072 14:0.157858 15:0.043782 16:0.138451 17:0.139313 18:0.1204 19:0.054727 20:0.110001 21:0.043782 22:0.120897 23:0.147256 24:0.156715 
1 1 1 1 1 1 1:0.522469 2:0.178048 3:0.288764 4:0.266783 5:0.27788 6:0.189134 7:0.169166 8:0.114346 9:0.122169 10:0.099957 11:0.122169 12:0.105364 13:0.422624 14:0.160178 15:0.044425 16:0.140485 17:0.133738 18:0.122169 19:0.045793 20:0.122169 21:0.044425 22:0.111617 23:0.14223 24:0.157067 
1 1 1 1 1 1 1:0.519625 2:0.176734 3:0.287404 4:0.26533 5:0.277028 6:0.199132 7:0.172895 8:0.113724 9:0.122005 10:0.099413 11:0.122005 12:0.10479 13:0.419888 14:0.159305 15:0.044183 16:0.13972 17:0.140591 18:0.121504 19:0.044183 20:0.122005 21:0.044183 22:0.111009 23:0.148607 24:0.158152 
1 1 1 1 1 1 1:0.507391 2:0.183675 3:0.280638 4:0.26986 5:0.292014 6:0.194444 7:0.164284 8:0.111046 9:0.129878 10:0.107858 11:0.119133 12:0.112607 13:0.421198 14:0.164638 15:0.043143 16:0.146703 17:0.145108 18:0.118644 19:0.043143 20:0.119133 21:0.043143 22:0.119133 23:0.145108 24:0.152534 
1 1 1 1 1 1 1:0.521762 2:0.17746 3:0.288586 4:0.277504 5:0.278168 6:0.199951 7:0.169301 8:0.109236 9:0.111466 10:0.110913 11:0.122507 12:0.105221 13:0.410527 14:0.159961 15:0.044365 16:0.140295 17:0.141169 18:0.122004 19:0.044365 20:0.122507 21:0.055456 22:0.111466 23:0.149218 24:0.147976 
1 1 1 1 1 1 1:0.52425 2:0.189451 3:0.278604 4:0.267692 5:0.290605 6:0.200905 7:0.15956 8:0.114736 9:0.123091 10:0.100298 11:0.111442 12:0.105723 13:0.412937 14:0.160724 15:0.055721 16:0.137846 17:0.141842 18:0.111442 19:0.055721 20:0.111998 21:0.044577 22:0.123091 23:0.14993 24:0.146579 
1 1 1 1 1 1 1:0.52084 2:0.184623 3:0.282085 4:0.26042 5:0.282085 6:0.195447 7:0.169695 8:0.111619 9:0.119256 10:0.097573 11:0.119747 12:0.113188 13:0.422954 14:0.165487 15:0.054207 16:0.144643 17:0.137989 18:0.108414 19:0.054207 20:0.108955 21:0.043366 22:0.119747 23:0.145856 24:0.155226 
1 1 1 1 1 1 1:0.515707 2:0.186364 3:0.274283 4:0.26333 5:0.285237 6:0.19763 7:0.171591 8:0.112867 9:0.120588 10:0.098663 11:0.110172 12:0.104 13:0.427681 14:0.167336 15:0.054813 16:0.146259 17:0.139531 18:0.109626 19:0.054813 20:0.110172 21:0.04385 22:0.121086 23:0.147486 24:0.15696 
1 1 1 1 1 1 1:0.527103 2:0.186843 3:0.274295 4:0.274514 5:0.285478 6:0.197797 7:0.171736 8:0.112962 9:0.12069 10:0.098746 11:0.109718 12:0.104088 13:0.417073 14:0.158238 15:0.054859 16:0.135714 17:0.132118 18:0.109718 19:0.054859 20:0.121187 21:0.054859 22:0.110265 23:0.140508 24:0.155165 
1 1 1 1 1 1 1:0.527167 2:0.186866 3:0.285301 4:0.263583 5:0.286144 6:0.197821 7:0.171757 8:0.122683 9:0.120704 10:0.099366 11:0.120704 12:0.1041 13:0.417123 14:0.158257 15:0.054866 16:0.13573 17:0.132134 18:0.109731 19:0.054866 20:0.109731 21:0.055952 22:0.110278 23:0.140525 24:0.144329 
1 1 1 1 1 1 1:0.529982 2:0.187863 3:0.275793 4:0.264991 5:0.287037 6:0.188833 7:0.172674 8:0.10865 9:0.121349 10:0.099286 11:0.110317 12:0.104656 13:0.419351 14:0.159102 15:0.055159 16:0.136455 17:0.13284 18:0.110317 19:0.056251 20:0.110317 21:0.055159 22:0.110867 23:0.150048 24:0.156012 
1 1 1 1 1 1 1:0.520991 2:0.188727 3:0.27706 4:0.277282 5:0.288994 6:0.188727 7:0.16363 8:0.109149 9:0.122409 10:0.100356 11:0.110824 12:0.105137 13:0.421715 14:0.166236 15:0.055412 16:0.140183 17:0.13345 18:0.110824 19:0.055412 20:0.121907 21:0.055412 22:0.111377 23:0.141924 24:0.145766 
1 1 1 1 1 1 1:0.531017 2:0.18823 3:0.276553 4:0.265278 5:0.288234 6:0.18823 7:0.1632 8:0.108862 9:0.122087 10:0.099479 11:0.110533 12:0.10486 13:0.42017 14:0.159412 15:0.056361 16:0.147469 17:0.140685 18:0.110533 19:0.055266 20:0.110533 21:0.055266 22:0.111084 23:0.141551 24:0.145383 
1 1 1 1 1 1 1:0.524351 2:0.178462 3:0.290215 4:0.267693 5:0.290858 6:0.189944 7:0.164685 8:0.109853 9:0.123199 10:0.100385 11:0.122693 12:0.095299 13:0.412844 14:0.151709 15:0.045989 16:0.141087 17:0.141966 18:0.122693 19:0.055769 20:0.111539 21:0.044616 22:0.123199 23:0.15006 24:0.148811 
1 1 1 1 1 1 1:0.524609 2:0.189908 3:0.289947 4:0.267643 5:0.290803 6:0.201042 7:0.164654 8:0.114815 9:0.123176 10:0.100366 11:0.12267 12:0.105795 13:0.412767 14:0.151681 15:0.055759 16:0.12715 17:0.134285 18:0.111518 19:0.055759 20:0.111518 21:0.055759 22:0.112074 23:0.142813 24:0.146679 
1 1 1 1 1 1 1:0.529146 2:0.187243 3:0.275358 4:0.264573 5:0.286584 6:0.187567 7:0.172401 8:0.108478 9:0.121157 10:0.099129 11:0.110143 12:0.104491 13:0.418689 14:0.158851 15:0.055072 16:0.13624 17:0.140189 18:0.110143 19:0.056162 20:0.110143 21:0.044057 22:0.121657 23:0.148182 24:0.157701 
1 1 1 1 1 1 1:0.528058 2:0.187181 3:0.285995 4:0.264029 5:0.275011 6:0.198155 7:0.172047 8:0.113166 9:0.120908 10:0.099534 11:0.120908 12:0.104276 13:0.417828 14:0.158524 15:0.043967 16:0.139035 17:0.140762 18:0.121407 19:0.043967 20:0.120908 21:0.04532 22:0.109917 23:0.139901 24:0.146647 
1 1 1 1 1 1 1:0.534986 2:0.178522 3:0.278397 4:0.267493 5:0.279287 6:0.189637 7:0.164419 8:0.109676 9:0.111914 10:0.08978 11:0.122495 12:0.105644 13:0.423749 14:0.160604 15:0.044544 16:0.140859 17:0.134094 18:0.111359 19:0.055679 20:0.122495 21:0.055679 22:0.111914 23:0.142609 24:0.14647 
1 1 1 1 1 1 1:0.517545 2:0.176026 3:0.286043 4:0.264268 5:0.286254 6:0.198335 7:0.172203 8:0.113269 9:0.121018 10:0.099015 11:0.121018 12:0.104371 13:0.418207 14:0.158668 15:0.044007 16:0.139161 17:0.140028 18:0.121018 19:0.044007 20:0.121517 21:0.044007 22:0.121517 23:0.148012 24:0.15752 
1 1 1 1 1 1 1:0.521515 2:0.174026 3:0.282242 4:0.271387 5:0.282451 6:0.1957 7:0.169915 8:0.111764 9:0.130266 10:0.108555 11:0.11941 12:0.102984 13:0.423502 14:0.15656 15:0.043422 16:0.137312 17:0.130717 18:0.11941 19:0.043422 20:0.11941 21:0.043422 22:0.109096 23:0.146045 24:0.155427 
1 1 1 1 1 1 1:0.520073 2:0.184471 3:0.281645 4:0.271029 5:0.293279 6:0.195286 7:0.169556 8:0.106688 9:0.119649 10:0.098093 11:0.108325 12:0.102766 13:0.423023 14:0.162488 15:0.064995 16:0.133991 17:0.122556 18:0.108325 19:0.064995 20:0.108325 21:0.054163 22:0.119649 23:0.145737 24:0.153195 
1 1 1 1 1 1 1:0.51643 2:0.191004 3:0.291835 4:0.280628 5:0.2813 6:0.202202 7:0.175561 8:0.110466 9:0.112161 10:0.101567 11:0.112161 12:0.106406 13:0.415603 14:0.159411 15:0.067297 16:0.127884 17:0.126896 18:0.112721 19:0.067297 20:0.112161 21:0.057191 22:0.112721 23:0.142758 24:0.147525 
1 1 1 1 1 1 1:0.515769 2:0.186708 3:0.285061 4:0.274316 5:0.285272 6:0.197654 7:0.171612 8:0.107982 9:0.120603 10:0.098675 11:0.109639 12:0.104013 13:0.417204 14:0.164458 15:0.054819 16:0.138683 17:0.132023 18:0.120603 19:0.055905 20:0.120603 21:0.054819 22:0.110186 23:0.147504 24:0.155053 
1 1 1 1 1 1 1:0.522115 2:0.177927 3:0.288568 4:0.266602 5:0.277692 6:0.189006 7:0.173723 8:0.10931 9:0.122087 10:0.099889 11:0.122087 12:0.105292 13:0.4219 14:0.160069 15:0.044395 16:0.14039 17:0.133647 18:0.122087 19:0.056593 20:0.110988 21:0.044395 22:0.111541 23:0.149319 24:0.15891 
1 1 1 1 1 1 1:0.518929 2:0.176497 3:0.286807 4:0.264975 5:0.287019 6:0.187852 7:0.172663 8:0.108643 9:0.121342 10:0.099279 11:0.121342 12:0.10465 13:0.419325 14:0.159092 15:0.044124 16:0.139533 17:0.140402 18:0.121342 19:0.045482 20:0.121342 21:0.044124 22:0.121842 23:0.148408 24:0.157941 
1 1 1 1 1 1 1:0.525099 2:0.178595 3:0.279279 4:0.268126 5:0.279947 6:0.190086 7:0.174716 8:0.114922 9:0.122784 10:0.10046 11:0.123291 12:0.105894 13:0.424311 14:0.160984 15:0.044649 16:0.141192 17:0.142072 18:0.111622 19:0.046023 20:0.122784 21:0.046023 22:0.112179 23:0.134411 24:0.148923 
1 1 1 1 1 1 1:0.525132 2:0.189769 3:0.279296 4:0.268142 5:0.291093 6:0.190098 7:0.164818 8:0.109942 9:0.123298 10:0.100466 11:0.112186 12:0.105901 13:0.413179 14:0.160994 15:0.055815 16:0.138078 17:0.142081 18:0.111629 19:0.055815 20:0.112186 21:0.044652 22:0.123298 23:0.150182 24:0.148932 
1 1 1 1 1 1 1:0.520133 2:0.176906 3:0.287685 4:0.26559 5:0.288322 6:0.199326 7:0.173064 8:0.113835 9:0.122125 10:0.09951 11:0.121623 12:0.094468 13:0.420298 14:0.150387 15:0.056378 16:0.136763 17:0.13314 18:0.110566 19:0.055283 20:0.111118 21:0.044227 22:0.122125 23:0.148752 24:0.158307 
1 1 1 1 1 1 1:0.523439 2:0.178031 3:0.2893 4:0.267278 5:0.289514 6:0.189485 7:0.164287 8:0.109587 9:0.122396 10:0.100142 11:0.122396 12:0.105559 13:0.411846 14:0.160475 15:0.044508 16:0.140746 17:0.141623 18:0.122396 19:0.056736 20:0.111269 21:0.044508 22:0.122901 23:0.149697 24:0.148452 
1 1 1 1 1 1 1:0.520323 2:0.177317 3:0.287578 4:0.265687 5:0.276739 6:0.1994 7:0.173127 8:0.113877 9:0.121668 10:0.100159 11:0.121668 12:0.104931 13:0.420452 14:0.15952 15:0.044243 16:0.139908 17:0.133188 18:0.121668 19:0.044243 20:0.121668 21:0.044243 22:0.111159 23:0.148807 24:0.158365 
1 1 1 1 1 1 1:0.528693 2:0.186881 3:0.274825 4:0.264061 5:0.286029 6:0.187204 7:0.172068 8:0.108268 9:0.120923 10:0.098937 11:0.10993 12:0.104289 13:0.418312 14:0.164895 15:0.054965 16:0.139052 17:0.139918 18:0.10993 19:0.056053 20:0.10993 21:0.043972 22:0.121422 23:0.147896 24:0.157396 
1 1 1 1 1 1 1:0.52344 2:0.189287 3:0.278585 4:0.278585 5:0.290352 6:0.189614 7:0.164399 8:0.109662 9:0.122985 10:0.111345 11:0.12248 12:0.09959 13:0.412127 14:0.145176 15:0.045909 16:0.137726 17:0.141719 18:0.111345 19:0.044538 20:0.122985 21:0.044538 22:0.122985 23:0.149799 24:0.148553 
1 1 1 1 1 1 1:0.519656 2:0.188115 3:0.276163 4:0.276163 5:0.288058 6:0.199144 7:0.1631 8:0.108796 9:0.122013 10:0.099419 11:0.110465 12:0.104796 13:0.420349 14:0.165698 15:0.055233 16:0.139729 17:0.133018 18:0.110465 19:0.055233 20:0.121512 21:0.055233 22:0.111016 23:0.148616 24:0.145294 
1 1 1 1 1 1 1:0.51953 2:0.18807 3:0.287139 4:0.276316 5:0.276978 6:0.199095 7:0.16306 8:0.108769 9:0.110989 10:0.100006 11:0.121482 12:0.108769 13:0.420246 14:0.159276 15:0.044175 16:0.139695 17:0.132985 18:0.121482 19:0.055219 20:0.121482 21:0.055219 22:0.110989 23:0.148579 24:0.145259 
1 1 1 1 1 1 1:0.524153 2:0.189416 3:0.289909 4:0.267411 5:0.290551 6:0.189743 7:0.164511 8:0.109737 9:0.123069 10:0.100279 11:0.122563 12:0.095198 13:0.412408 14:0.151549 15:0.056814 16:0.13782 17:0.141816 18:0.111421 19:0.055711 20:0.111421 21:0.044568 22:0.123069 23:0.149902 24:0.148654 
1 1 1 1 1 1 1:0.522076 2:0.193092 3:0.283469 4:0.272367 5:0.295679 6:0.193092 7:0.167415 8:0.111674 9:0.124726 10:0.102677 11:0.113388 12:0.107569 13:0.408825 14:0.161154 15:0.056694 16:0.132717 17:0.136537 18:0.113388 19:0.056694 20:0.113388 21:0.046751 22:0.125241 23:0.144319 24:0.140253 
1 1 1 1 1 1 1:0.522728 2:0.178257 3:0.289317 4:0.267096 5:0.289957 6:0.200148 7:0.174045 8:0.124318 9:0.122313 10:0.10069 11:0.122313 12:0.105487 13:0.411566 14:0.15124 15:0.044477 16:0.130149 17:0.133895 18:0.122817 19:0.055597 20:0.111194 21:0.045846 22:0.122817 23:0.141526 24:0.148351 
1 1 1 1 1 1 1:0.521281 2:0.177297 3:0.28832 4:0.266176 5:0.277248 6:0.199767 7:0.173446 8:0.114086 9:0.121892 10:0.09973 11:0.122394 12:0.105124 13:0.421226 14:0.159813 15:0.055405 16:0.137065 17:0.133434 18:0.110811 19:0.056503 20:0.110811 21:0.044324 22:0.111363 23:0.14908 24:0.158657 
1 1 1 1 1 1 1:0.521134 2:0.188112 3:0.287701 4:0.265801 5:0.287914 6:0.199485 7:0.163379 8:0.113926 9:0.12172 10:0.099589 11:0.12172 12:0.104976 13:0.410019 14:0.165982 15:0.055327 16:0.139968 17:0.14084 18:0.110654 19:0.055327 20:0.111206 21:0.044262 22:0.122222 23:0.14887 24:0.147631 
1 1 1 1 1 1 1:0.521249 2:0.177632 3:0.288303 4:0.26616 5:0.277231 6:0.199754 7:0.158647 8:0.114079 9:0.121884 10:0.099723 11:0.122387 12:0.115683 13:0.421637 14:0.169135 15:0.055402 16:0.147831 17:0.133425 18:0.110804 19:0.055402 20:0.111356 21:0.044321 22:0.111356 23:0.149071 24:0.14574 
0 1 1 1 1 1 1:0.522051 2:0.177559 3:0.277435 4:0.266338 5:0.278322 6:0.200062 7:0.173702 8:0.114255 9:0.122575 10:0.099877 11:0.122072 12:0.105279 13:0.421848 14:0.160049 15:0.04439 16:0.140372 17:0.141247 18:0.110974 19:0.04439 20:0.122072 21:0.04439 22:0.111528 23:0.149301 24:0.158891 
1 1 1 1 1 1 1:0.521954 2:0.177526 3:0.28848 4:0.26652 5:0.277606 6:0.188947 7:0.169 8:0.114234 9:0.122049 10:0.099858 11:0.122049 12:0.10526 13:0.422208 14:0.16002 15:0.044381 16:0.140347 17:0.141221 18:0.122049 19:0.044381 20:0.122552 21:0.044381 22:0.111507 23:0.14209 24:0.156912 
1 1 1 1 1 1 1:0.5143 2:0.190216 3:0.290631 4:0.27947 5:0.291275 6:0.190216 7:0.174836 8:0.11001 9:0.122869 10:0.101148 11:0.122869 12:0.11001 13:0.413889 14:0.151927 15:0.044679 16:0.13074 17:0.134503 18:0.123375 19:0.055849 20:0.122869 21:0.056955 22:0.112256 23:0.134503 24:0.146917 
1 1 1 1 1 1 1:0.521057 2:0.177221 3:0.288197 4:0.266062 5:0.277792 6:0.188623 7:0.173371 8:0.119295 9:0.110763 10:0.099687 11:0.122342 12:0.105079 13:0.421482 14:0.169072 15:0.044305 16:0.150654 17:0.140978 18:0.121839 19:0.055381 20:0.111315 21:0.056478 22:0.111315 23:0.141846 24:0.145686 
1 1 1 1 1 1 1:0.516888 2:0.175803 3:0.285891 4:0.274912 5:0.286524 6:0.198083 7:0.167359 8:0.113125 9:0.132309 10:0.109877 11:0.120865 12:0.093879 13:0.41811 14:0.149449 15:0.045303 16:0.138984 17:0.13985 18:0.120865 19:0.043951 20:0.121363 21:0.043951 22:0.110425 23:0.147824 24:0.155389 
1 1 1 1 1 1 1:0.53021 2:0.180334 3:0.281997 4:0.270736 5:0.282672 6:0.191936 7:0.166412 8:0.111005 9:0.113271 10:0.090167 11:0.12398 12:0.096298 13:0.417631 14:0.1533 15:0.046471 16:0.142566 17:0.143455 18:0.112709 19:0.056354 20:0.124491 21:0.056354 22:0.113271 23:0.144338 24:0.148245 
1 1 1 1 1 1 1:0.526083 2:0.179279 3:0.290762 4:0.268628 5:0.280472 6:0.201607 7:0.170336 8:0.115137 9:0.123014 10:0.101268 11:0.123014 12:0.106093 13:0.41438 14:0.152107 15:0.044733 16:0.130895 17:0.134663 18:0.123014 19:0.044733 20:0.123014 21:0.046109 22:0.112389 23:0.142338 24:0.147091 
1 1 1 1 1 1 1:0.512512 2:0.189228 3:0.289621 4:0.278499 5:0.290262 6:0.190533 7:0.174229 8:0.109628 9:0.122442 10:0.100179 11:0.122442 12:0.095104 13:0.41245 14:0.151399 15:0.045895 16:0.140798 17:0.149753 18:0.122442 19:0.055655 20:0.122947 21:0.056757 22:0.111866 23:0.142547 24:0.146406 
1 1 1 1 1 1 1:0.518866 2:0.187829 3:0.286985 4:0.264943 5:0.276624 6:0.198841 7:0.172642 8:0.113558 9:0.121827 10:0.099267 11:0.121827 12:0.10863 13:0.419274 14:0.159073 15:0.044119 16:0.139516 17:0.132815 18:0.121327 19:0.044119 20:0.121827 21:0.044119 22:0.110847 23:0.14839 24:0.157921 
0 1 1 1 1 1 1:0.516514 2:0.176019 3:0.285684 4:0.263742 5:0.274713 6:0.19794 7:0.17186 8:0.113043 9:0.120777 10:0.098818 11:0.120777 12:0.104163 13:0.42835 14:0.158352 15:0.045271 16:0.149341 17:0.139749 18:0.120777 19:0.043919 20:0.121275 21:0.043919 22:0.110345 23:0.147717 24:0.157206 
1 1 1 1 1 1 1:0.517953 2:0.187175 3:0.28648 4:0.275478 5:0.287114 6:0.198491 7:0.162565 8:0.113358 9:0.132582 10:0.110103 11:0.121613 12:0.108439 13:0.40753 14:0.158793 15:0.044041 16:0.139271 17:0.140138 18:0.121113 19:0.044041 20:0.121613 21:0.044041 22:0.110652 23:0.148128 24:0.146896 
1 1 1 1 1 1 1:0.522019 2:0.177548 3:0.27764 4:0.27764 5:0.278305 6:0.188971 7:0.158881 8:0.114248 9:0.122567 10:0.110967 11:0.122567 12:0.105273 13:0.42226 14:0.169384 15:0.044387 16:0.150932 17:0.141238 18:0.110967 19:0.044387 20:0.122567 21:0.044387 22:0.111521 23:0.142108 24:0.145955 
1 1 1 1 1 1 1:0.52559 2:0.179111 3:0.290489 4:0.268377 5:0.280209 6:0.201418 7:0.17488 8:0.11503 9:0.122899 10:0.101173 11:0.122899 12:0.105993 13:0.413539 14:0.151965 15:0.044691 16:0.130773 17:0.134537 18:0.122899 19:0.044691 20:0.122899 21:0.046066 22:0.112284 23:0.142205 24:0.149062 
1 1 1 1 1 1 1:0.52373 2:0.17813 3:0.289675 4:0.278551 5:0.279217 6:0.18959 7:0.159402 8:0.114623 9:0.122969 10:0.111331 11:0.122969 12:0.105618 13:0.412527 14:0.160564 15:0.044532 16:0.140824 17:0.141702 18:0.122464 19:0.044532 20:0.122969 21:0.044532 22:0.111887 23:0.142574 24:0.146433 
1 1 1 1 1 1 1:0.51438 2:0.17495 3:0.284503 4:0.273359 5:0.285133 6:0.197122 7:0.17115 8:0.12225 9:0.120278 10:0.109343 11:0.120774 12:0.103732 13:0.415649 14:0.166906 15:0.043737 16:0.148723 17:0.139172 18:0.120278 19:0.054672 20:0.109343 21:0.045083 22:0.120774 23:0.147107 24:0.145882 
1 1 1 1 1 1 1:0.517984 2:0.18751 3:0.286285 4:0.265179 5:0.287131 6:0.198503 7:0.172349 8:0.123106 9:0.121121 10:0.099709 11:0.121121 12:0.104459 13:0.418562 14:0.158803 15:0.055055 16:0.136198 17:0.13259 18:0.11011 19:0.055055 20:0.110659 21:0.045399 22:0.12162 23:0.148137 24:0.146905 
0 1 1 1 1 1 1:0.530649 2:0.180835 3:0.270725 4:0.270959 5:0.28223 6:0.192095 7:0.16655 8:0.111097 9:0.124082 10:0.101522 11:0.112802 12:0.107013 13:0.417519 14:0.162685 15:0.045121 16:0.142684 17:0.135831 18:0.112802 19:0.046509 20:0.124082 21:0.045121 22:0.113364 23:0.151759 24:0.150496 
1 1 1 1 1 1 1:0.518766 2:0.187596 3:0.276098 4:0.276098 5:0.287124 6:0.187921 7:0.172726 8:0.108683 9:0.121386 10:0.099316 11:0.121886 12:0.108683 13:0.419914 14:0.15915 15:0.04414 16:0.139584 17:0.140454 18:0.110351 19:0.055175 20:0.121886 21:0.055175 22:0.110901 23:0.141318 24:0.15606 
1 1 1 1 1 1 1:0.52077 2:0.188193 3:0.288038 4:0.276976 5:0.288675 6:0.188518 7:0.163449 8:0.109029 9:0.122274 10:0.099632 11:0.111254 12:0.105021 13:0.410195 14:0.166053 15:0.055351 16:0.140028 17:0.1409 18:0.121772 19:0.055351 20:0.122274 21:0.055351 22:0.111254 23:0.141768 24:0.145606 
1 1 1 1 1 1 1:0.523439 2:0.178031 3:0.2893 4:0.267278 5:0.289514 6:0.189485 7:0.164287 8:0.109587 9:0.122396 10:0.100142 11:0.122396 12:0.105559 13:0.411846 14:0.160475 15:0.044508 16:0.140746 17:0.141623 18:0.122396 19:0.055635 20:0.111824 21:0.044508 22:0.122901 23:0.149697 24:0.148452 
1 1 1 1 1 1 1:0.523147 2:0.189379 3:0.289139 4:0.267129 5:0.278906 6:0.200482 7:0.159225 8:0.114495 9:0.122832 10:0.100087 11:0.122328 12:0.1055 13:0.412068 14:0.160385 15:0.044483 16:0.140667 17:0.142415 18:0.122328 19:0.044483 20:0.122832 21:0.044483 22:0.111762 23:0.149614 24:0.14627 
1 1 1 1 1 1 1:0.520642 2:0.177425 3:0.287967 4:0.26585 5:0.276908 6:0.199522 7:0.173233 8:0.113947 9:0.121742 10:0.099607 11:0.122244 12:0.104995 13:0.42071 14:0.159617 15:0.04427 16:0.139994 17:0.13327 18:0.121742 19:0.055337 20:0.111227 21:0.04427 22:0.111227 23:0.148898 24:0.158462 
0 1 1 1 1 1 1:0.522051 2:0.177559 3:0.277657 4:0.266569 5:0.278322 6:0.200062 7:0.163851 8:0.114255 9:0.122575 10:0.099877 11:0.111528 12:0.105279 13:0.421848 14:0.169395 15:0.04439 16:0.150941 17:0.141247 18:0.122072 19:0.04439 20:0.122575 21:0.04439 22:0.111528 23:0.149301 24:0.148058 
1 1 1 1 1 1 1:0.522501 2:0.177712 3:0.288995 4:0.277897 5:0.278562 6:0.189145 7:0.173852 8:0.119626 9:0.11107 10:0.11107 11:0.122681 12:0.10537 13:0.411559 14:0.160187 15:0.044428 16:0.140494 17:0.141369 18:0.122177 19:0.044428 20:0.122681 21:0.056635 22:0.111624 23:0.142239 24:0.14609 
1 1 1 1 1 1 1:0.509943 2:0.188738 3:0.288374 4:0.277299 5:0.289012 6:0.199803 7:0.16364 8:0.114107 9:0.122417 10:0.110831 11:0.121914 12:0.105143 13:0.410224 14:0.150746 15:0.045697 16:0.140191 17:0.149108 18:0.121914 19:0.044332 20:0.122417 21:0.044332 22:0.122417 23:0.149108 24:0.147867 
1 1 1 1 1 1 1:0.519561 2:0.177057 3:0.287157 4:0.265298 5:0.287369 6:0.199108 7:0.172874 8:0.11371 9:0.121489 10:0.0994 11:0.121489 12:0.104777 13:0.419836 14:0.159286 15:0.055222 16:0.136613 17:0.124954 18:0.110445 19:0.056316 20:0.110445 21:0.044178 22:0.12199 23:0.148589 24:0.158133 
1 1 1 1 1 1 1:0.519276 2:0.187654 3:0.275961 4:0.265152 5:0.276182 6:0.187978 7:0.172779 8:0.113648 9:0.121423 10:0.099346 11:0.110384 12:0.10472 13:0.430641 14:0.168495 15:0.055192 16:0.147271 17:0.140496 18:0.110384 19:0.044154 20:0.121924 21:0.044154 22:0.110935 23:0.141361 24:0.158046 
1 1 1 1 1 1 1:0.527516 2:0.186989 3:0.27451 4:0.263758 5:0.286334 6:0.197952 7:0.17187 8:0.122765 9:0.120784 10:0.098824 11:0.109804 12:0.104169 13:0.417833 14:0.164706 15:0.054902 16:0.138892 17:0.132221 18:0.109804 19:0.055989 20:0.109804 21:0.045273 22:0.121282 23:0.147726 24:0.146497 
1 1 1 1 1 1 1:0.525825 2:0.179313 3:0.279854 4:0.268446 5:0.280524 6:0.190478 7:0.165148 8:0.110162 9:0.123545 10:0.100667 11:0.123038 12:0.106112 13:0.425186 14:0.161316 15:0.044741 16:0.141483 17:0.134688 18:0.11241 19:0.055926 20:0.111852 21:0.044741 22:0.11241 23:0.150482 24:0.14923 
1 1 1 1 1 1 1:0.528857 2:0.187465 3:0.275208 4:0.264429 5:0.287061 6:0.187465 7:0.172307 8:0.118563 9:0.121091 10:0.099075 11:0.121091 12:0.108419 13:0.418895 14:0.158764 15:0.044033 16:0.139245 17:0.132558 18:0.110083 19:0.056132 20:0.110083 21:0.045388 22:0.121591 23:0.148102 24:0.146869 
1 1 1 1 1 1 1:0.524678 2:0.189734 3:0.279244 4:0.268092 5:0.291039 6:0.190062 7:0.174695 8:0.120206 9:0.122769 10:0.101066 11:0.111608 12:0.095358 13:0.413101 14:0.151804 15:0.056909 16:0.138052 17:0.142054 18:0.111608 19:0.055804 20:0.111608 21:0.046017 22:0.123275 23:0.150154 24:0.148904 
1 1 1 1 1 1 1:0.526565 2:0.186652 3:0.274234 4:0.274234 5:0.285817 6:0.186652 7:0.17156 8:0.118049 9:0.120567 10:0.099252 11:0.120567 12:0.107949 13:0.417079 14:0.158076 15:0.043842 16:0.138642 17:0.131983 18:0.110153 19:0.054803 20:0.120567 21:0.045192 22:0.121064 23:0.14746 24:0.146233 
1 1 1 1 1 1 1:0.521537 2:0.188796 3:0.277384 4:0.266307 5:0.289101 6:0.199865 7:0.16369 8:0.114143 9:0.122454 10:0.099779 11:0.110865 12:0.105176 13:0.421433 14:0.159892 15:0.05653 16:0.147912 17:0.141108 18:0.110865 19:0.055433 20:0.111418 21:0.055433 22:0.111418 23:0.141977 24:0.14582 
1 1 1 1 1 1 1:0.525332 2:0.178796 3:0.290758 4:0.268427 5:0.280261 6:0.190299 7:0.164993 8:0.110059 9:0.123429 10:0.100573 11:0.123429 12:0.106013 13:0.413617 14:0.161165 15:0.044699 16:0.141351 17:0.142231 18:0.122922 19:0.055874 20:0.112305 21:0.044699 22:0.112305 23:0.150341 24:0.14909 
1 1 1 1 1 1 1:0.528777 2:0.191217 3:0.281201 4:0.269953 5:0.293313 6:0.191547 7:0.166075 8:0.11078 9:0.124239 10:0.101232 11:0.11248 12:0.096103 13:0.416329 14:0.15299 15:0.05624 16:0.128247 17:0.135444 18:0.11248 19:0.05624 20:0.11248 21:0.05624 22:0.113041 23:0.144045 24:0.147945 
-0 1 1 1 1 1 1:0.348743 2:0.253796 3:0.369889 4:0.362639 5:0.362856 6:0.254211 7:0.155185 8:0.081072 9:0.072513 10:0.065262 11:0.080094 12:0.080094 13:0.283173 14:0.15687 15:0.195786 16:0.10877 17:0.094546 18:0.094267 19:0.210414 20:0.087016 21:0.203167 22:0.087318 23:0.094267 24:0.118043 
-0 1 1 1 1 1 1:0.355186 2:0.252497 3:0.367774 4:0.368056 5:0.368409 6:0.245606 7:0.148664 8:0.073541 9:0.079651 10:0.065301 11:0.079324 12:0.079651 13:0.282069 14:0.152121 15:0.201915 16:0.107203 17:0.084097 18:0.086535 19:0.209126 20:0.094023 21:0.202044 22:0.086835 23:0.084405 24:0.122379 
-0 1 1 1 1 1 1:0.34949 2:0.249428 3:0.363452 4:0.363522 5:0.363732 6:0.249835 7:0.151512 8:0.079677 9:0.078392 10:0.064139 11:0.071621 12:0.085815 13:0.292535 14:0.158234 15:0.206792 16:0.116011 17:0.08611 18:0.085518 19:0.206669 20:0.092918 21:0.19967 22:0.085815 23:0.092645 24:0.126081 
-0 1 1 1 1 1 1:0.352019 2:0.253251 3:0.365807 4:0.358773 5:0.366078 6:0.246317 7:0.145025 8:0.078651 9:0.077382 10:0.063313 11:0.077701 12:0.085582 13:0.288768 14:0.154924 15:0.204129 16:0.124458 17:0.085001 18:0.084417 19:0.211043 20:0.084417 21:0.204008 22:0.085582 23:0.088983 24:0.129332 
-1 1 1 1 1 1 1:0.360469 2:0.247191 3:0.360193 4:0.360262 5:0.367866 6:0.247292 7:0.145599 8:0.078962 9:0.078009 10:0.063563 11:0.070978 12:0.085045 13:0.289911 14:0.161052 15:0.204937 16:0.120272 17:0.085338 18:0.084751 19:0.204815 20:0.092085 21:0.197753 22:0.092894 23:0.091814 24:0.12495 
-1 1 1 1 1 1 1:0.380863 2:0.255925 3:0.358369 4:0.351059 5:0.358593 6:0.234103 7:0.140462 8:0.074569 9:0.080765 10:0.065809 11:0.080434 12:0.088956 13:0.307458 14:0.165778 15:0.197563 16:0.125803 17:0.091621 18:0.080434 19:0.197428 20:0.08805 21:0.190116 22:0.08805 23:0.085586 24:0.119033 
-0 1 1 1 1 1 1:0.351584 2:0.253036 3:0.365356 4:0.35833 5:0.365626 6:0.246013 7:0.144846 8:0.078554 9:0.077287 10:0.063235 11:0.070611 12:0.091609 13:0.288411 14:0.160219 15:0.203877 16:0.11965 17:0.088036 18:0.091339 19:0.210782 20:0.084313 21:0.203756 22:0.085476 23:0.088874 24:0.129173 
-1 1 1 1 1 1 1:0.353985 2:0.243154 3:0.368415 4:0.361122 5:0.368709 6:0.243265 7:0.151901 8:0.08238 9:0.081385 10:0.066315 11:0.081051 12:0.081385 13:0.294824 14:0.157688 15:0.198944 16:0.120849 17:0.089031 18:0.08842 19:0.198944 20:0.096071 21:0.191576 22:0.096071 23:0.095788 24:0.120849 
-1 1 1 1 1 1 1:0.349766 2:0.254921 3:0.364024 4:0.364097 5:0.371946 6:0.247643 7:0.144513 8:0.08301 9:0.087669 10:0.065524 11:0.080416 12:0.088571 13:0.291583 14:0.155809 15:0.189432 16:0.109207 17:0.08887 18:0.094646 19:0.203853 20:0.094926 21:0.189293 22:0.09576 23:0.094646 24:0.123982 
-1 1 1 1 1 1 1:0.354014 2:0.25276 3:0.360938 4:0.36101 5:0.36844 6:0.245544 7:0.153473 8:0.089291 9:0.086625 10:0.065369 11:0.079406 12:0.08782 13:0.296321 14:0.160282 15:0.194906 16:0.114139 17:0.090451 18:0.086625 19:0.202125 20:0.093844 21:0.187826 22:0.094121 23:0.093844 24:0.118396 
-0 1 1 0.35141736938731055 1 1 1:0.346122 2:0.254082 3:0.374066 4:0.360227 5:0.367279 6:0.247125 7:0.145501 8:0.078909 9:0.077636 10:0.056902 11:0.077636 12:0.077956 13:0.282667 14:0.152685 15:0.204678 16:0.114893 17:0.088435 18:0.091752 19:0.218793 20:0.084988 21:0.204799 22:0.084988 23:0.08261 24:0.124866 
-0 1 1 1 1 1 1:0.344021 2:0.25254 3:0.371795 4:0.364847 5:0.372059 6:0.252637 7:0.144618 8:0.079983 9:0.08418 10:0.07015 11:0.077165 12:0.077483 13:0.28095 14:0.155758 15:0.203435 16:0.119461 17:0.087898 18:0.091195 19:0.203556 20:0.091195 21:0.196545 22:0.091464 23:0.084763 24:0.119048 
-0 1 1 1 1 1 1:0.353251 2:0.251953 3:0.366982 4:0.359859 5:0.367617 6:0.244761 7:0.143915 8:0.080451 9:0.079479 10:0.06516 11:0.079153 12:0.08754 13:0.288638 14:0.159771 15:0.201481 16:0.118019 17:0.086946 18:0.086349 19:0.208676 20:0.086349 21:0.201481 22:0.08754 23:0.09102 24:0.122116 
-1 1 1 1 1 1 1:0.360098 2:0.251616 3:0.366641 4:0.359524 5:0.366923 6:0.24485 7:0.148206 8:0.080376 9:0.079079 10:0.0651 11:0.079079 12:0.080376 13:0.287921 14:0.153852 15:0.194104 16:0.117909 17:0.090078 18:0.093457 19:0.208482 20:0.086268 21:0.201421 22:0.086567 23:0.090935 24:0.122002 
-1 1 1 1 1 1 1:0.351884 2:0.251137 3:0.366012 4:0.358838 5:0.366223 6:0.244067 7:0.147923 8:0.080223 9:0.078929 10:0.064578 11:0.078929 12:0.087292 13:0.294975 14:0.163623 15:0.193734 16:0.119421 17:0.096267 18:0.093555 19:0.208085 20:0.086402 21:0.201037 22:0.086402 23:0.083985 24:0.121769 
-0 1 1 0 1 1 1:0.340438 2:0.256852 3:0.374864 4:0.367988 5:0.375121 6:0.250006 7:0.154136 8:0.077613 9:0.083303 10:0.069419 11:0.090245 12:0.077613 13:0.278024 14:0.156001 15:0.194374 16:0.104129 17:0.090512 18:0.090245 19:0.201316 20:0.097435 21:0.194498 22:0.097435 23:0.086982 24:0.108436 
-0 1 1 1 1 1 1:0.346854 2:0.254355 3:0.374467 4:0.36747 5:0.368013 6:0.254747 7:0.151207 8:0.080558 9:0.084785 10:0.070654 11:0.09185 12:0.078994 13:0.28297 14:0.152848 15:0.190766 16:0.105981 17:0.092122 18:0.09185 19:0.197958 20:0.098916 21:0.190897 22:0.092931 23:0.094793 24:0.110365 
-0 1 1 1 1 1 1:0.355915 2:0.249043 3:0.362744 4:0.362813 5:0.363371 6:0.249348 7:0.152217 8:0.079522 9:0.078239 10:0.064014 11:0.078239 12:0.085647 13:0.291964 14:0.157926 15:0.199153 16:0.116656 17:0.089121 18:0.085351 19:0.213379 20:0.085647 21:0.19928 22:0.086529 23:0.092464 24:0.115785 
-1 1 1 1 1 1 1:0.351294 2:0.252575 3:0.37177 4:0.36496 5:0.372298 6:0.252867 7:0.144582 8:0.079964 9:0.091173 10:0.070133 11:0.084451 12:0.08532 13:0.280881 14:0.15572 15:0.189358 16:0.11089 17:0.091442 18:0.098186 19:0.196497 20:0.098436 21:0.189488 22:0.092245 23:0.094093 24:0.114168 
-1 1 1 1 1 1 1:0.345292 2:0.248259 3:0.372246 4:0.372309 5:0.37939 6:0.25543 7:0.153059 8:0.078597 9:0.089615 10:0.075828 11:0.089615 12:0.083862 13:0.275824 14:0.149128 15:0.186123 16:0.103402 17:0.089879 18:0.096508 19:0.193016 20:0.103631 21:0.18625 22:0.103631 23:0.095767 24:0.103402 
-1 1 1 1 1 1 1:0.354935 2:0.248009 3:0.36847 4:0.361454 5:0.368743 6:0.248413 7:0.15065 8:0.080792 9:0.085032 10:0.07086 11:0.078267 12:0.085326 13:0.29087 14:0.157334 15:0.198533 16:0.110686 17:0.088787 18:0.092118 19:0.198533 20:0.092118 21:0.191452 22:0.09239 23:0.092118 24:0.12067 
-0 1 1 1 1 1 1:0.346244 2:0.253638 3:0.373334 4:0.366292 5:0.373865 6:0.253931 7:0.150722 8:0.0803 9:0.084806 10:0.070428 11:0.084513 12:0.07779 13:0.27548 14:0.160754 15:0.197323 16:0.101572 17:0.091827 18:0.091556 19:0.197323 20:0.098599 21:0.190285 22:0.09885 23:0.094489 24:0.110012 
-1 1 1 1 1 1 1:0.357339 2:0.242659 3:0.363831 4:0.363901 5:0.36446 6:0.242659 7:0.15167 8:0.086788 9:0.078473 10:0.064206 11:0.078797 12:0.085904 13:0.293274 14:0.158399 15:0.19975 16:0.117005 17:0.0862 18:0.085904 19:0.207007 20:0.092741 21:0.199878 22:0.086788 23:0.090238 24:0.126212 
-1 1 1 1 1 1 1:0.353773 2:0.251857 3:0.367063 4:0.360084 5:0.367626 6:0.244767 7:0.158474 8:0.087542 9:0.079155 10:0.065162 11:0.079482 12:0.079482 13:0.288645 14:0.161708 15:0.19429 16:0.103781 17:0.093823 18:0.093547 19:0.208682 20:0.08665 21:0.194423 22:0.094648 23:0.093547 24:0.118022 
-0 1 1 0 1 1 1:0.340931 2:0.250012 3:0.375018 4:0.368139 5:0.376046 6:0.250398 7:0.148625 8:0.079183 9:0.090549 10:0.069448 11:0.083337 12:0.076708 13:0.278138 14:0.156064 15:0.194454 16:0.104172 17:0.090549 18:0.097227 19:0.208459 20:0.090282 21:0.194578 22:0.091344 23:0.090282 24:0.113053 
-0 1 1 1 1 1 1:0.350254 2:0.258457 3:0.370153 4:0.363171 5:0.370679 6:0.251767 7:0.149438 8:0.079616 9:0.083793 10:0.069828 11:0.084084 12:0.084949 13:0.280095 14:0.156918 15:0.195518 16:0.104742 17:0.091044 18:0.090776 19:0.202621 20:0.090776 21:0.195642 22:0.091844 23:0.090776 24:0.113671 
-0 1 1 1 1 1 1:0.345103 2:0.255011 3:0.365218 4:0.365413 5:0.365737 6:0.248124 7:0.151729 8:0.083816 9:0.075786 10:0.068897 11:0.076099 12:0.082963 13:0.283232 14:0.158612 15:0.20669 16:0.117327 17:0.086327 18:0.082676 19:0.206805 20:0.08983 21:0.206805 22:0.083816 23:0.087148 24:0.126665 
-0 1 1 1 1 1 1:0.352519 2:0.253456 3:0.366029 4:0.358993 5:0.36657 6:0.253749 7:0.149624 8:0.080242 9:0.077415 10:0.063339 11:0.077415 12:0.077734 13:0.28889 14:0.152249 15:0.204215 16:0.119848 17:0.088182 18:0.084453 19:0.204215 20:0.09149 21:0.197182 22:0.092567 23:0.09149 24:0.12451 
-0 1 1 1 1 1 1:0.351018 2:0.245372 3:0.364471 4:0.364471 5:0.365009 6:0.245372 7:0.15433 8:0.078349 9:0.077403 10:0.063458 11:0.077403 12:0.084385 13:0.294659 14:0.155597 15:0.196217 16:0.114936 17:0.087807 18:0.091101 19:0.210233 20:0.091101 21:0.203225 22:0.085253 23:0.088642 24:0.129217 
-0 1 1 1 1 1 1:0.346347 2:0.253713 3:0.373378 4:0.366401 5:0.373976 6:0.261041 7:0.145234 8:0.082458 9:0.091583 10:0.070449 11:0.084538 12:0.078764 13:0.275562 14:0.154667 15:0.190212 16:0.095821 17:0.085994 18:0.098628 19:0.204423 20:0.091583 21:0.190342 22:0.092661 23:0.094517 24:0.114682 
-0 1 1 0 1 1 1:0.341351 2:0.257367 3:0.375545 4:0.368789 5:0.376059 6:0.250706 7:0.148808 8:0.07928 9:0.090393 10:0.069533 11:0.083729 12:0.084591 13:0.271536 14:0.156257 15:0.194693 16:0.1043 17:0.09066 18:0.097347 19:0.201767 20:0.097595 21:0.187869 22:0.098335 23:0.093289 24:0.108615 
-0 1 1 1 1 1 1:0.359448 2:0.246025 3:0.365374 4:0.358623 5:0.365981 6:0.253049 7:0.144853 8:0.080113 9:0.077609 10:0.063627 11:0.070264 12:0.084317 13:0.288853 14:0.16176 15:0.203766 16:0.115242 17:0.088041 18:0.091343 19:0.210792 20:0.084609 21:0.196865 22:0.091613 23:0.084901 24:0.119242 
-0 1 1 1 1 1 1:0.346404 2:0.24707 3:0.366994 4:0.359939 5:0.367197 6:0.254417 7:0.150018 8:0.080454 9:0.077619 10:0.063506 11:0.070915 12:0.084675 13:0.29008 14:0.162447 15:0.204632 16:0.115731 17:0.088415 18:0.091731 19:0.204753 20:0.091731 21:0.197701 22:0.092002 23:0.091731 24:0.124838 
-0 1 1 1 1 1 1:0.342735 2:0.258036 3:0.36955 4:0.369747 5:0.370075 6:0.251357 7:0.149194 8:0.079486 9:0.083947 10:0.070062 11:0.083947 12:0.084811 13:0.279639 14:0.156663 15:0.195199 16:0.104571 17:0.090896 18:0.090628 19:0.209142 20:0.090896 21:0.195323 22:0.090896 23:0.090628 24:0.113486 
-0 1 1 1 1 1 1:0.347973 2:0.257131 3:0.368254 4:0.368451 5:0.375714 6:0.250476 7:0.148671 8:0.077669 9:0.083652 10:0.069816 11:0.083652 12:0.084513 13:0.278225 14:0.150286 15:0.187568 16:0.104204 17:0.094489 18:0.097257 19:0.201462 20:0.097505 21:0.194639 22:0.097505 23:0.093203 24:0.113088 
-1 1 1 1 1 1 1:0.349684 2:0.25653 3:0.370469 4:0.363556 5:0.371016 6:0.249409 7:0.146153 8:0.088108 9:0.0926 10:0.071586 11:0.085773 12:0.086656 13:0.285723 14:0.154096 15:0.1852 16:0.10273 17:0.096884 18:0.099723 19:0.199446 20:0.092874 21:0.185337 22:0.093689 23:0.095566 24:0.121302 
-0 1 1 1 1 1 1:0.338554 2:0.253038 3:0.379558 4:0.36577 5:0.373125 6:0.253136 7:0.144903 8:0.080141 9:0.084639 10:0.070639 11:0.084346 12:0.077636 13:0.281943 14:0.157954 15:0.196808 16:0.105433 17:0.091645 18:0.098404 19:0.196808 20:0.098655 21:0.189909 22:0.098655 23:0.088071 24:0.114421 
-0 1 1 1 1 1 1:0.349342 2:0.248703 3:0.369501 4:0.36957 5:0.37721 6:0.255907 7:0.142116 8:0.081019 9:0.085565 10:0.071058 11:0.08527 12:0.078486 13:0.277945 14:0.153722 15:0.191856 16:0.106587 17:0.092648 18:0.092375 19:0.198962 20:0.099735 21:0.191988 22:0.099735 23:0.089035 24:0.11054 
-0 1 1 1 1 1 1:0.349332 2:0.251165 3:0.369693 4:0.362922 5:0.370219 6:0.251455 7:0.149252 8:0.077973 9:0.077031 10:0.063153 11:0.077031 12:0.083979 13:0.279748 14:0.156723 15:0.202249 16:0.108939 17:0.087385 18:0.090663 19:0.209223 20:0.090931 21:0.202369 22:0.090931 23:0.090663 24:0.118354 
-0 1 1 1 1 1 1:0.339655 2:0.253959 3:0.373807 4:0.36696 5:0.374338 6:0.254253 7:0.145375 8:0.080402 9:0.091672 10:0.070517 11:0.084914 12:0.084914 13:0.275829 14:0.158467 15:0.197448 16:0.105776 17:0.091943 18:0.091672 19:0.204621 20:0.091943 21:0.190527 22:0.092751 23:0.094609 24:0.114793 
-0 1 1 1 1 1 1:0.348192 2:0.255065 3:0.368353 4:0.361272 5:0.368898 6:0.247985 7:0.15157 8:0.079184 9:0.078228 10:0.063742 11:0.078228 12:0.085283 13:0.284092 14:0.163049 15:0.198307 16:0.111983 17:0.092343 18:0.092071 19:0.21259 20:0.084989 21:0.198434 22:0.092343 23:0.085577 24:0.115293 
-0 1 1 1 1 1 1:0.347224 2:0.246837 3:0.373695 4:0.36685 5:0.374691 6:0.254177 7:0.150868 8:0.080378 9:0.084888 10:0.070496 11:0.084888 12:0.084888 13:0.275747 14:0.15842 15:0.190339 16:0.101671 17:0.091916 18:0.098694 19:0.20456 20:0.091916 21:0.19047 22:0.099696 23:0.09458 24:0.110118 
-1 1 1 1 1 1 1:0.347646 2:0.249952 3:0.367843 4:0.367908 5:0.375361 6:0.25689 7:0.143081 8:0.08779 9:0.090226 10:0.069404 11:0.083574 12:0.083574 13:0.278397 14:0.159781 15:0.187392 16:0.105941 17:0.0944 18:0.097414 19:0.201392 20:0.097166 21:0.18752 22:0.098152 23:0.093116 24:0.112982 
-0 1 1 1 1 1 1:0.345062 2:0.255235 3:0.37237 4:0.365539 5:0.372625 6:0.262401 7:0.147575 8:0.080712 9:0.089645 10:0.068957 11:0.089909 12:0.090699 13:0.276174 14:0.158752 15:0.186312 16:0.099452 17:0.093792 18:0.09654 19:0.199976 20:0.096786 21:0.186312 22:0.096786 23:0.095799 24:0.107715 
-0 1 1 1 1 1 1:0.338974 2:0.253735 3:0.373554 4:0.366574 5:0.374152 6:0.254126 7:0.145302 8:0.080362 9:0.091627 10:0.063434 11:0.084578 12:0.07785 13:0.28272 14:0.158389 15:0.190301 16:0.101651 17:0.095866 18:0.098675 19:0.204398 20:0.098926 21:0.190432 22:0.092705 23:0.094562 24:0.114736 
-1 1 1 1 1 1 1:0.359331 2:0.251433 3:0.366225 4:0.359116 5:0.366506 6:0.244572 7:0.152668 8:0.080285 9:0.07899 10:0.064628 11:0.07899 12:0.079315 13:0.294766 14:0.155346 15:0.201065 16:0.112169 17:0.083743 18:0.086171 19:0.201065 20:0.093627 21:0.194017 22:0.093627 23:0.093351 24:0.122286 
-0 1 1 1 1 1 1:0.346984 2:0.254548 3:0.367539 4:0.367811 5:0.375207 6:0.247786 7:0.151263 8:0.079023 9:0.084817 10:0.071033 11:0.078069 12:0.085111 13:0.276017 14:0.162719 15:0.198032 16:0.106021 17:0.086277 18:0.091885 19:0.197906 20:0.099205 21:0.198032 22:0.092966 23:0.091885 24:0.11506 
-0 1 1 1 1 1 1:0.343372 2:0.253732 3:0.370176 4:0.370239 5:0.377591 6:0.254009 7:0.146706 8:0.07816 9:0.089116 10:0.075406 11:0.082261 12:0.082546 13:0.274974 14:0.159887 15:0.191943 16:0.098866 17:0.09324 18:0.095971 19:0.198798 20:0.096216 21:0.192065 22:0.096946 23:0.091971 24:0.111593 
-0 1 1 1 1 1 1:0.347704 2:0.249994 3:0.36797 4:0.36123 5:0.368494 6:0.249994 7:0.152873 8:0.084448 9:0.076358 10:0.062474 11:0.076358 12:0.076672 13:0.285366 14:0.155993 15:0.201426 16:0.113851 17:0.086978 18:0.090241 19:0.215302 20:0.083588 21:0.201426 22:0.091302 23:0.090241 24:0.122809 
-1 1 1 1 1 1 1:0.351797 2:0.25808 3:0.372707 4:0.365753 5:0.373257 6:0.251223 7:0.147733 8:0.081706 9:0.093159 10:0.072019 11:0.086291 12:0.08012 13:0.279846 14:0.151169 15:0.186319 16:0.09747 17:0.091771 18:0.100326 19:0.200651 20:0.093435 21:0.186457 22:0.094255 23:0.096143 24:0.111938 
-0 1 1 1 1 1 1:0.342976 2:0.258218 3:0.376721 4:0.36981 5:0.370336 6:0.251244 7:0.1493 8:0.08487 9:0.083716 10:0.069763 11:0.09096 12:0.08487 13:0.27288 14:0.156773 15:0.18849 16:0.094888 17:0.08934 18:0.097668 19:0.202433 20:0.097668 21:0.195461 22:0.091759 23:0.093597 24:0.113566 
-0 1 1 1 1 1 1:0.347427 2:0.247799 3:0.375086 4:0.368281 5:0.375686 6:0.248102 7:0.151456 8:0.079124 9:0.085219 10:0.071124 11:0.084925 12:0.078169 13:0.276822 14:0.155374 15:0.191081 16:0.096259 17:0.086387 18:0.099079 19:0.205235 20:0.092274 21:0.198285 22:0.092274 23:0.092002 24:0.115207 
-1 1 1 1 1 1 1:0.345957 2:0.253795 3:0.373565 4:0.366723 5:0.374097 6:0.253795 7:0.150816 8:0.08035 9:0.091884 10:0.070823 11:0.091884 12:0.085732 13:0.282238 14:0.152453 15:0.183226 16:0.101635 17:0.095852 18:0.09866 19:0.19732 20:0.098911 21:0.190403 22:0.091884 23:0.088301 24:0.11008 
-0 1 1 1 1 1 1:0.348405 2:0.255493 3:0.376209 4:0.369318 5:0.369659 6:0.255887 7:0.147679 8:0.074095 9:0.085459 10:0.071324 11:0.085459 12:0.078389 13:0.27006 14:0.155812 15:0.198717 16:0.100868 17:0.092534 18:0.092261 19:0.198717 20:0.099611 21:0.19162 22:0.093347 23:0.095217 24:0.110859 
-1 1 1 1 1 1 1:0.349564 2:0.250982 3:0.369424 4:0.369621 5:0.376907 6:0.251272 7:0.149144 8:0.079459 9:0.090865 10:0.076975 11:0.083918 12:0.083918 13:0.279109 14:0.156609 15:0.188164 16:0.100509 17:0.094789 18:0.097566 19:0.195133 20:0.097815 21:0.188293 22:0.097815 23:0.093499 24:0.10886 
-0 1 1 1 1 1 1:0.357257 2:0.249733 3:0.37088 4:0.356901 5:0.371497 6:0.250038 7:0.147036 8:0.081321 9:0.085884 10:0.064586 11:0.078455 12:0.078779 13:0.286094 14:0.160279 15:0.199705 16:0.106985 17:0.083176 18:0.09272 19:0.206837 20:0.085884 21:0.192704 22:0.092994 23:0.09272 24:0.116106 
-1 1 1 1 1 1 1:0.353826 2:0.254041 3:0.373928 4:0.36003 5:0.37446 6:0.254335 7:0.145422 8:0.080428 9:0.091973 10:0.070892 11:0.091973 12:0.085815 13:0.282952 14:0.152601 15:0.183404 16:0.101734 17:0.095945 18:0.098756 19:0.197512 20:0.091973 21:0.183539 22:0.099007 23:0.097997 24:0.110187 
-1 1 1 1 1 1 1:0.350923 2:0.259312 3:0.371377 4:0.371377 5:0.371905 6:0.2526 7:0.149932 8:0.079879 9:0.091076 10:0.070059 11:0.084362 12:0.08523 13:0.273588 14:0.15381 15:0.189158 16:0.09529 17:0.09529 18:0.098082 19:0.196289 20:0.105088 21:0.182287 22:0.099078 23:0.097329 24:0.105088 
-1 1 1 1 1 1 1:0.350476 2:0.258981 3:0.370838 4:0.363908 5:0.371102 6:0.259265 7:0.144246 8:0.081897 9:0.09096 10:0.069969 11:0.083963 12:0.085121 13:0.280664 14:0.157237 15:0.188917 16:0.100911 17:0.095169 18:0.097957 19:0.195914 20:0.098207 21:0.182055 22:0.098207 23:0.097205 24:0.109296 
-1 1 1 1 1 1 1:0.359476 2:0.258458 3:0.373253 4:0.358903 5:0.366289 6:0.251592 7:0.14795 8:0.081826 9:0.086119 10:0.071766 11:0.086418 12:0.087307 13:0.287871 14:0.161275 15:0.186592 16:0.099701 17:0.097613 18:0.100473 19:0.186592 20:0.100729 21:0.179559 22:0.100729 23:0.099701 24:0.107649 
-1 1 1 1 1 1 1:0.356424 2:0.256263 3:0.370084 4:0.362969 5:0.370631 6:0.256263 7:0.146694 8:0.083287 9:0.092777 10:0.078272 11:0.085684 12:0.086566 13:0.285427 14:0.159905 15:0.185008 16:0.098854 17:0.096784 18:0.09962 19:0.192123 20:0.092777 21:0.178034 22:0.099873 23:0.092777 24:0.106735 
-1 1 1 1 1 1 1:0.356939 2:0.249511 3:0.370619 4:0.363704 5:0.370824 6:0.256931 7:0.152502 8:0.081249 9:0.085512 10:0.071615 11:0.092911 12:0.086691 13:0.285395 14:0.154158 15:0.178149 16:0.098997 17:0.096924 18:0.099764 19:0.192401 20:0.100018 21:0.185412 22:0.100018 23:0.098997 24:0.10689 
-1 1 1 1 1 1 1:0.352031 2:0.253007 3:0.372483 4:0.365522 5:0.372748 6:0.253397 7:0.150405 8:0.080131 9:0.091364 10:0.077308 11:0.091364 12:0.078575 13:0.281909 14:0.157934 15:0.182727 16:0.097636 17:0.095591 18:0.098392 19:0.196783 20:0.091634 21:0.189886 22:0.091634 23:0.09429 24:0.109781 
-1 1 1 1 1 1 1:0.356668 2:0.249219 3:0.370269 4:0.363218 5:0.370542 6:0.256439 7:0.152386 8:0.081187 9:0.085447 10:0.071205 11:0.085447 12:0.078649 13:0.285178 14:0.160014 15:0.192255 16:0.102694 17:0.092841 18:0.092567 19:0.192255 20:0.099942 21:0.185271 22:0.099942 23:0.092841 24:0.106808 
-1 1 1 1 1 1 1:0.356397 2:0.249132 3:0.369987 4:0.370056 5:0.370603 6:0.25654 7:0.146682 8:0.083281 9:0.092497 10:0.071151 11:0.085382 12:0.078589 13:0.27831 14:0.156209 15:0.192109 16:0.096776 17:0.086851 18:0.092497 19:0.199351 20:0.099612 21:0.18513 22:0.093585 23:0.09546 24:0.111142 
-1 1 1 1 1 1 1:0.346629 2:0.256138 3:0.373751 4:0.367028 5:0.374263 6:0.256418 7:0.148097 8:0.078902 9:0.090227 10:0.076435 11:0.090227 12:0.084187 13:0.277582 14:0.15551 15:0.186843 16:0.099803 17:0.094124 18:0.096882 19:0.193764 20:0.097129 21:0.186971 22:0.097129 23:0.096137 24:0.108096 
-0 1 1 0 1 1 1:0.345383 2:0.25354 3:0.373334 4:0.373533 5:0.380896 6:0.253931 7:0.146551 8:0.073529 9:0.091827 10:0.07779 11:0.084806 12:0.07779 13:0.267996 14:0.154621 15:0.190155 16:0.095792 17:0.095792 18:0.098599 19:0.197198 20:0.09885 21:0.190285 22:0.09885 23:0.088246 24:0.104698 
-1 1 1 1 1 1 1:0.35816 2:0.24346 3:0.365102 4:0.357946 5:0.365662 6:0.24346 7:0.15217 8:0.087074 9:0.078732 10:0.064417 11:0.079057 12:0.086187 13:0.300955 14:0.157627 15:0.193252 16:0.123142 17:0.089683 18:0.093047 19:0.200537 20:0.093047 21:0.193384 22:0.094142 23:0.093047 24:0.121887 
-1 1 1 1 1 1 1:0.363785 2:0.242209 3:0.363157 4:0.356108 5:0.363785 6:0.249632 7:0.151389 8:0.081189 9:0.078651 10:0.064087 11:0.071207 12:0.085449 13:0.29941 14:0.158106 15:0.19938 16:0.116789 17:0.089222 18:0.092569 19:0.206501 20:0.085745 21:0.192392 22:0.092843 23:0.092569 24:0.121262 
-1 1 1 1 1 1 1:0.349835 2:0.25664 3:0.377753 4:0.363713 5:0.371176 6:0.249517 7:0.142523 8:0.081251 9:0.092914 10:0.071262 11:0.092914 12:0.086693 13:0.278741 14:0.16014 15:0.18528 16:0.099 17:0.096926 18:0.099766 19:0.199659 20:0.092914 21:0.18528 22:0.09373 23:0.095607 24:0.111314 
-1 1 1 1 1 1 1:0.355752 2:0.255424 3:0.368872 4:0.361989 5:0.369417 6:0.255719 7:0.151783 8:0.080866 9:0.085109 10:0.071277 11:0.085404 12:0.086282 13:0.284049 14:0.153432 15:0.184402 16:0.102288 17:0.096467 18:0.099293 19:0.198587 20:0.092473 21:0.191625 22:0.093286 23:0.095154 24:0.110786 
-1 1 1 1 1 1 1:0.363962 2:0.252182 3:0.363358 4:0.355945 5:0.363585 6:0.244772 7:0.147162 8:0.08289 9:0.081553 10:0.066725 11:0.074509 12:0.089275 13:0.29739 14:0.164616 15:0.192762 16:0.113169 17:0.096666 18:0.096381 19:0.200313 20:0.088967 21:0.192904 22:0.089275 23:0.089583 24:0.12069 
-0 1 1 1 1 1 1:0.341022 2:0.257119 3:0.375118 4:0.368237 5:0.375696 6:0.250464 7:0.148664 8:0.079204 9:0.090306 10:0.076413 11:0.090306 12:0.084509 13:0.278645 14:0.156106 15:0.187559 16:0.100186 17:0.094484 18:0.097253 19:0.201452 20:0.090573 21:0.187687 22:0.09824 23:0.093199 24:0.10851 
-1 1 1 1 1 1 1:0.361889 2:0.245749 3:0.361239 4:0.361528 5:0.361889 6:0.25328 7:0.153601 8:0.082375 9:0.079473 10:0.065423 11:0.079473 12:0.086998 13:0.296568 14:0.154617 15:0.187844 16:0.114234 17:0.0942 18:0.093922 19:0.202294 20:0.0942 21:0.195203 22:0.087893 23:0.093922 24:0.123034 
-1 1 1 1 1 1 1:0.346958 2:0.254529 3:0.374579 4:0.36758 5:0.374846 6:0.254529 7:0.141351 8:0.082723 9:0.091878 10:0.071028 11:0.091878 12:0.08598 13:0.276448 14:0.158823 15:0.183756 16:0.098185 17:0.096129 18:0.098945 19:0.197891 20:0.098945 21:0.183756 22:0.09995 23:0.094821 24:0.110398 
-1 1 1 1 1 1 1:0.369449 2:0.24351 3:0.361485 4:0.354111 5:0.362086 6:0.250882 7:0.152054 8:0.082463 9:0.074125 10:0.059006 11:0.081467 12:0.088815 13:0.295857 14:0.163767 15:0.191768 16:0.112585 17:0.092417 18:0.088508 19:0.206651 20:0.088508 21:0.199281 22:0.088815 23:0.089121 24:0.120068 
-1 1 1 1 1 1 1:0.355001 2:0.2572 3:0.375235 4:0.361405 5:0.368549 6:0.250543 7:0.143253 8:0.079229 9:0.090334 10:0.069488 11:0.090334 12:0.084536 13:0.285663 14:0.159973 15:0.187618 16:0.106069 17:0.094514 18:0.097283 19:0.194566 20:0.097531 21:0.180802 22:0.097531 23:0.096536 24:0.108544 
-1 1 1 1 1 1 1:0.348359 2:0.255823 3:0.36938 4:0.369448 5:0.376751 6:0.255823 7:0.147813 8:0.080992 9:0.092345 10:0.078138 11:0.085242 12:0.086417 13:0.277399 14:0.15963 15:0.18469 16:0.098684 17:0.096618 18:0.099448 19:0.191793 20:0.099702 21:0.184827 22:0.099702 23:0.092618 24:0.100959 
-1 1 1 1 1 1 1:0.358453 2:0.257623 3:0.364966 4:0.365036 5:0.372741 6:0.250875 7:0.143124 8:0.074713 9:0.093305 10:0.071562 11:0.086172 12:0.087059 13:0.286605 14:0.158893 15:0.186199 16:0.103208 17:0.097335 18:0.093031 19:0.193217 20:0.100442 21:0.178905 22:0.101204 23:0.099417 24:0.107343 
-1 1 1 1 1 1 1:0.351333 2:0.250845 3:0.372533 4:0.365439 5:0.380304 6:0.251152 7:0.147691 8:0.081683 9:0.100297 10:0.071641 11:0.085969 12:0.07913 13:0.279767 14:0.157284 15:0.186266 16:0.093408 17:0.091745 18:0.100297 19:0.193563 20:0.100297 21:0.179245 22:0.101316 23:0.099527 24:0.107461 
-1 1 1 1 1 1 1:0.357493 2:0.249898 3:0.363989 4:0.357137 5:0.364618 6:0.250204 7:0.157177 8:0.079794 9:0.078507 10:0.064233 11:0.078507 12:0.085941 13:0.292966 14:0.158468 15:0.1927 16:0.112846 17:0.093056 18:0.092781 19:0.207097 20:0.085941 21:0.199964 22:0.086826 23:0.092781 24:0.121539 
-1 1 1 1 1 1 1:0.351874 2:0.257762 3:0.372179 4:0.365092 5:0.372798 6:0.25806 7:0.147551 8:0.083774 9:0.093045 10:0.071573 11:0.085888 12:0.080021 13:0.279959 14:0.157135 15:0.18609 16:0.09332 17:0.091658 18:0.100202 19:0.193379 20:0.100202 21:0.179075 22:0.101219 23:0.099432 24:0.107359 
-1 1 1 1 1 1 1:0.354622 2:0.252931 3:0.368406 4:0.368477 5:0.375908 6:0.252931 7:0.144473 8:0.082362 9:0.093907 10:0.07946 11:0.086684 12:0.079788 13:0.282555 14:0.162331 15:0.187815 16:0.100354 17:0.092508 18:0.093907 19:0.187815 20:0.101389 21:0.180736 22:0.101389 23:0.094185 24:0.102667 
-1 1 1 1 1 1 1:0.350294 2:0.255029 3:0.371462 4:0.36447 5:0.372104 6:0.247748 7:0.144575 8:0.083045 9:0.094966 10:0.073199 11:0.087403 12:0.081433 13:0.292161 14:0.157568 15:0.189373 16:0.105045 17:0.088907 18:0.094686 19:0.196656 20:0.094966 21:0.182235 22:0.094966 23:0.091263 24:0.113773 
-1 1 1 1 1 1 1:0.350372 2:0.257301 3:0.371514 4:0.364369 5:0.372132 6:0.250159 7:0.147288 8:0.08146 9:0.093153 10:0.078589 11:0.085734 12:0.086917 13:0.286137 14:0.154559 15:0.185757 16:0.103039 17:0.097176 18:0.100023 19:0.185757 20:0.100023 21:0.185757 22:0.093971 23:0.095853 24:0.117178 
-1 1 1 1 1 1 1:0.350316 2:0.256993 3:0.371069 4:0.371138 5:0.371686 6:0.24986 7:0.148489 8:0.081362 9:0.093041 10:0.078495 11:0.085928 12:0.086812 13:0.278393 14:0.154374 15:0.185535 16:0.102916 17:0.097059 18:0.100158 19:0.192803 20:0.099903 21:0.185535 22:0.093859 23:0.095739 24:0.107039 
-1 1 1 1 1 1 1:0.350879 2:0.257307 3:0.371734 4:0.364588 5:0.37194 6:0.250568 7:0.142948 8:0.081493 9:0.092916 10:0.071474 11:0.085769 12:0.086952 13:0.279116 14:0.158698 15:0.185833 16:0.109101 17:0.103082 18:0.100319 19:0.200255 20:0.092916 21:0.18597 22:0.093191 23:0.095893 24:0.106254 
-0 1 1 1 1 1 1:0.349889 2:0.256581 3:0.370616 4:0.363559 5:0.37089 6:0.256976 7:0.148308 8:0.081263 9:0.085527 10:0.071272 11:0.085823 12:0.086707 13:0.278783 14:0.164081 15:0.185445 16:0.099015 17:0.096941 18:0.099781 19:0.199563 20:0.092928 21:0.192567 22:0.092928 23:0.095622 24:0.105954 
-1 1 1 1 1 1 1:0.351883 2:0.252901 3:0.372393 4:0.365572 5:0.372923 6:0.252999 7:0.146181 8:0.080098 9:0.091595 10:0.077275 11:0.091595 12:0.085463 13:0.281352 14:0.161728 15:0.182651 16:0.103723 17:0.101316 18:0.09835 19:0.189806 20:0.098601 21:0.182651 22:0.099349 23:0.097595 24:0.105375 
-1 1 1 1 1 1 1:0.352327 2:0.253318 3:0.372796 4:0.36583 5:0.373393 6:0.253318 7:0.140678 8:0.080199 9:0.091711 10:0.070339 11:0.091441 12:0.085571 13:0.282146 14:0.161932 15:0.182881 16:0.103854 17:0.095671 18:0.098474 19:0.196949 20:0.098725 21:0.183016 22:0.098725 23:0.091711 24:0.104566 
-1 1 1 1 1 1 1:0.353511 2:0.25612 3:0.366806 4:0.367001 5:0.373916 6:0.249491 7:0.148087 8:0.078896 9:0.089955 10:0.07643 11:0.083323 12:0.084181 13:0.284042 14:0.159302 15:0.18683 16:0.105624 17:0.094117 18:0.096875 19:0.19375 20:0.097122 21:0.186958 22:0.097122 23:0.092837 24:0.108088 
-1 1 1 1 1 1 1:0.346404 2:0.254026 3:0.373982 4:0.366994 5:0.374248 6:0.254124 7:0.151011 8:0.082591 9:0.091731 10:0.070563 11:0.091731 12:0.078891 13:0.282603 14:0.15857 15:0.183463 16:0.098029 17:0.095976 18:0.098788 19:0.197575 20:0.099039 21:0.183599 22:0.099039 23:0.088415 24:0.105844 
-1 1 1 1 1 1 1:0.353183 2:0.254187 3:0.367017 4:0.367289 5:0.374341 6:0.254481 7:0.151048 8:0.080474 9:0.091754 10:0.077958 11:0.084696 12:0.085865 13:0.282674 14:0.158609 15:0.183509 16:0.098053 17:0.095999 18:0.098812 19:0.190567 20:0.099064 21:0.183644 22:0.099064 23:0.098053 24:0.10587 
-1 1 1 1 1 1 1:0.363515 2:0.246853 3:0.37012 4:0.363152 5:0.363515 6:0.254418 7:0.149612 8:0.082745 9:0.087087 10:0.072934 11:0.087087 12:0.080159 13:0.290652 14:0.156998 15:0.188828 16:0.110777 17:0.094623 18:0.094623 19:0.188688 20:0.10186 21:0.181576 22:0.095454 23:0.100821 24:0.108859 
-1 1 1 1 1 1 1:0.35222 2:0.253493 3:0.373054 4:0.366286 5:0.373652 6:0.253493 7:0.140775 8:0.080254 9:0.091774 10:0.070739 11:0.091504 12:0.08563 13:0.281902 14:0.156286 15:0.183008 16:0.107442 17:0.095738 18:0.098543 19:0.197085 20:0.098794 21:0.183143 22:0.098794 23:0.091774 24:0.104639 
-1 1 1 1 1 1 1:0.354429 2:0.254829 3:0.37502 4:0.361145 5:0.368556 6:0.254829 7:0.15143 8:0.080677 9:0.085204 10:0.071111 11:0.091986 12:0.086081 13:0.283387 14:0.153074 15:0.183972 16:0.102049 17:0.096242 18:0.099062 19:0.198124 20:0.092258 21:0.191179 22:0.092258 23:0.08866 24:0.110528 
-1 1 1 1 1 1 1:0.36344 2:0.247048 3:0.363149 4:0.356183 5:0.36344 6:0.247048 7:0.154413 8:0.088358 9:0.079893 10:0.065769 11:0.079893 12:0.088358 13:0.298137 14:0.155435 15:0.188838 16:0.114838 17:0.091005 18:0.094419 19:0.203364 20:0.087458 21:0.196235 22:0.087458 23:0.094419 24:0.123684 
-1 1 1 1 1 1 1:0.361927 2:0.252997 3:0.361349 4:0.354125 5:0.361566 6:0.246093 7:0.138044 8:0.082384 9:0.079481 10:0.06503 11:0.072616 12:0.087007 13:0.297654 14:0.164768 15:0.202315 16:0.124313 17:0.090536 18:0.086706 19:0.209665 20:0.079481 21:0.195223 22:0.087007 23:0.091397 24:0.127833 
-1 1 1 1 1 1 1:0.36092 2:0.247601 3:0.374785 4:0.360712 5:0.367986 6:0.247903 7:0.145781 8:0.080627 9:0.091928 10:0.070714 11:0.091928 12:0.086028 13:0.290273 14:0.157011 15:0.183857 16:0.107941 17:0.0922 18:0.099 19:0.198 20:0.0922 21:0.183993 22:0.0922 23:0.094873 24:0.110459 
-1 1 1 1 1 1 1:0.350566 2:0.250038 3:0.371403 4:0.371403 5:0.371608 6:0.250038 7:0.142821 8:0.08142 9:0.092833 10:0.07141 11:0.085989 12:0.085989 13:0.279323 14:0.164399 15:0.185667 16:0.105436 17:0.097129 18:0.099975 19:0.200076 20:0.099975 21:0.185804 22:0.093108 23:0.089477 24:0.106159 
-1 1 1 1 1 1 1:0.357534 2:0.247985 3:0.371889 4:0.3646 5:0.37246 6:0.247985 7:0.145811 8:0.083125 9:0.095057 10:0.073269 11:0.08779 12:0.08779 13:0.284705 14:0.163834 15:0.189554 16:0.101283 17:0.095057 18:0.094777 19:0.196844 20:0.094777 21:0.182409 22:0.095057 23:0.09135 24:0.103618 
-1 1 1 1 1 1 1:0.36086 2:0.245295 3:0.360644 4:0.360644 5:0.368066 6:0.245613 7:0.153317 8:0.080626 9:0.079326 10:0.064903 11:0.079653 12:0.086837 13:0.29602 14:0.154331 15:0.194709 16:0.118276 17:0.090359 18:0.086537 19:0.202049 20:0.093749 21:0.194842 22:0.094026 23:0.093749 24:0.122806 
-1 1 1 1 1 1 1:0.358605 2:0.252939 3:0.372382 4:0.365423 5:0.372978 6:0.253036 7:0.146203 8:0.08011 9:0.091609 10:0.077287 11:0.091339 12:0.078554 13:0.281394 14:0.157891 15:0.182678 16:0.097609 17:0.095565 18:0.098365 19:0.189704 20:0.098616 21:0.182678 22:0.099364 23:0.097609 24:0.105391 
-0 1 1 1 1 1 1:0.34903 2:0.25823 3:0.369963 4:0.369963 5:0.370161 6:0.251348 7:0.145228 8:0.079575 9:0.090998 10:0.076771 11:0.08375 12:0.084906 13:0.279255 14:0.160673 15:0.195542 16:0.104688 17:0.090998 18:0.09073 19:0.195418 20:0.097958 21:0.188438 22:0.090998 23:0.093636 24:0.109019 
-1 1 1 1 1 1 1:0.369504 2:0.241525 3:0.36213 4:0.355314 5:0.362756 6:0.248622 7:0.146383 8:0.080959 9:0.085503 10:0.064299 11:0.078107 12:0.085503 13:0.298563 14:0.161919 15:0.198817 16:0.122163 17:0.085797 18:0.085207 19:0.205917 20:0.085503 21:0.191716 22:0.086382 23:0.092308 24:0.120919 
-1 1 1 1 1 1 1:0.352124 2:0.253326 3:0.372953 4:0.365984 5:0.366524 6:0.253424 7:0.156243 8:0.085607 9:0.084442 10:0.077405 11:0.084442 12:0.077725 13:0.281562 14:0.158133 15:0.189995 16:0.101487 17:0.095711 18:0.098516 19:0.197157 20:0.091479 21:0.190125 22:0.092555 23:0.097759 24:0.105553 
-1 1 1 1 1 1 1:0.350059 2:0.257072 3:0.378388 4:0.364114 5:0.3718 6:0.250242 7:0.147156 8:0.081387 9:0.092796 10:0.071381 11:0.09307 12:0.086839 13:0.278753 14:0.154421 15:0.185591 16:0.102947 17:0.097089 18:0.099934 19:0.192862 20:0.099934 21:0.178596 22:0.100948 23:0.099166 24:0.107072 
-0 1 1 1 1 1 1:0.34793 2:0.255508 3:0.368924 4:0.368992 5:0.376621 6:0.255508 7:0.147631 8:0.080892 9:0.092504 10:0.071301 11:0.085431 12:0.086311 13:0.276784 14:0.153482 15:0.191688 16:0.100835 17:0.086602 18:0.092231 19:0.198652 20:0.099326 21:0.184462 22:0.100334 23:0.098563 24:0.10642 
-0.29850835885163363 1 1 1 1 1 1:0.356803 2:0.249416 3:0.363286 4:0.363565 5:0.363565 6:0.249416 7:0.152444 8:0.07964 9:0.078356 10:0.064504 11:0.078356 12:0.085775 13:0.292401 14:0.158162 15:0.199451 16:0.11683 17:0.089254 18:0.085479 19:0.206575 20:0.092876 21:0.199578 22:0.085775 23:0.086071 24:0.115958 
-1 1 1 1 1 1 1:0.356973 2:0.249682 3:0.370956 4:0.364102 5:0.364451 6:0.242653 7:0.147066 8:0.079758 9:0.078795 10:0.071693 11:0.085605 12:0.079758 13:0.293266 14:0.158395 15:0.192612 16:0.112795 17:0.089386 18:0.092739 19:0.199745 20:0.093013 21:0.192612 22:0.09383 23:0.092739 24:0.121484 
-1 1 1 1 1 1 1:0.358133 2:0.250493 3:0.357918 4:0.357918 5:0.365634 6:0.250595 7:0.152158 8:0.088526 9:0.078726 10:0.064412 11:0.071926 12:0.086181 13:0.293783 14:0.15891 15:0.200394 16:0.117382 17:0.09602 18:0.085883 19:0.207674 20:0.085883 21:0.19337 22:0.094135 23:0.09304 24:0.121878 
-1 1 1 1 1 1 1:0.352709 2:0.253748 3:0.373573 4:0.366592 5:0.373839 6:0.253846 7:0.150846 8:0.087186 9:0.091631 10:0.070485 11:0.091902 12:0.085749 13:0.274984 14:0.152483 15:0.183398 16:0.095871 17:0.095871 18:0.09868 19:0.197359 20:0.098931 21:0.183398 22:0.098931 23:0.097922 24:0.105728 
-1 1 1 1 1 1 1:0.350037 2:0.251976 3:0.370965 4:0.371031 5:0.371229 6:0.25907 7:0.145647 8:0.081925 9:0.097991 10:0.07731 11:0.09126 12:0.085151 13:0.280061 14:0.155411 15:0.182117 16:0.100946 17:0.095201 18:0.097991 19:0.195982 20:0.097991 21:0.181983 22:0.092062 23:0.097238 24:0.10499 
-1 1 1 1 1 1 1:0.35484 2:0.248291 3:0.361648 4:0.361717 5:0.362273 6:0.248291 7:0.146187 8:0.079281 9:0.078324 10:0.06382 11:0.078002 12:0.085388 13:0.298586 14:0.161703 15:0.198552 16:0.122 17:0.088852 18:0.085094 19:0.205765 20:0.092185 21:0.198552 22:0.086267 23:0.092185 24:0.125455 
-1 1 1 1 1 1 1:0.36305 2:0.248961 3:0.362771 4:0.355729 5:0.36305 6:0.249367 7:0.146642 8:0.081103 9:0.078245 10:0.064018 11:0.078567 12:0.085654 13:0.291986 14:0.162205 15:0.199168 16:0.122379 17:0.095433 18:0.085654 19:0.206282 20:0.085654 21:0.199295 22:0.085654 23:0.089975 24:0.120714 
-0 1 1 1 1 1 1:0.349835 2:0.251526 3:0.377208 4:0.363175 5:0.370423 6:0.251526 7:0.149467 8:0.079631 9:0.090794 10:0.069841 11:0.08381 12:0.0841 13:0.279714 14:0.162897 15:0.195556 16:0.100727 17:0.091062 18:0.098027 19:0.20254 20:0.090794 21:0.188701 22:0.091062 23:0.087511 24:0.109096 
-1 1 1 1 1 1 1:0.361879 2:0.245742 3:0.36123 4:0.361302 5:0.368738 6:0.246061 7:0.154613 8:0.080773 9:0.079471 10:0.065021 11:0.079471 12:0.086996 13:0.289345 14:0.160412 15:0.195064 16:0.114231 17:0.090524 18:0.086695 19:0.209638 20:0.086695 21:0.195198 22:0.094197 23:0.09392 24:0.112852 
-1 1 1 1 1 1 1:0.354531 2:0.253026 3:0.361466 4:0.361755 5:0.368978 6:0.245903 7:0.149036 8:0.080826 9:0.079522 10:0.065464 11:0.079522 12:0.080826 13:0.296754 14:0.154714 15:0.195192 16:0.11857 17:0.090583 18:0.086752 19:0.20965 20:0.087052 21:0.195325 22:0.094259 23:0.087352 24:0.117685 
-0 1 1 1 1 1 1:0.349579 2:0.251342 3:0.362909 4:0.363178 5:0.370481 6:0.251342 7:0.148376 8:0.086326 9:0.083748 10:0.070138 11:0.076769 12:0.084039 13:0.286905 14:0.160669 15:0.202392 16:0.114465 17:0.087447 18:0.083748 19:0.202392 20:0.090995 21:0.195537 22:0.091795 23:0.090727 24:0.123472 
-1 1 1 1 1 1 1:0.364615 2:0.247847 3:0.364324 4:0.357111 5:0.364979 6:0.240564 7:0.150214 8:0.081465 9:0.080482 10:0.065982 11:0.080151 12:0.088644 13:0.299101 14:0.155937 15:0.189448 16:0.115209 17:0.091299 18:0.094724 19:0.204021 20:0.087438 21:0.196735 22:0.088644 23:0.092167 24:0.124084 
-1 1 1 1 1 1 1:0.363047 2:0.246429 3:0.355147 4:0.355221 5:0.363047 6:0.246535 7:0.143867 8:0.082639 9:0.080056 10:0.065231 11:0.072479 12:0.080056 13:0.305187 14:0.165278 15:0.202941 16:0.124698 17:0.087577 18:0.079727 19:0.210189 20:0.080056 21:0.195693 22:0.088175 23:0.091679 24:0.128228 
-1 1 1 1 1 1 1:0.358163 2:0.252627 3:0.371923 4:0.364973 5:0.372518 6:0.252724 7:0.146023 8:0.080011 9:0.091496 10:0.077192 11:0.091496 12:0.085371 13:0.281047 14:0.161553 15:0.182588 16:0.097489 17:0.095447 18:0.098244 19:0.18947 20:0.098494 21:0.182453 22:0.099241 23:0.097489 24:0.105261 
-1 1 1 1 1 1 1:0.355564 2:0.253867 3:0.36984 4:0.362591 5:0.362809 6:0.253867 7:0.14947 8:0.082667 9:0.087005 10:0.072504 11:0.087005 12:0.088205 13:0.290377 14:0.160984 15:0.18851 16:0.110672 17:0.094533 18:0.094533 19:0.19576 20:0.094533 21:0.188649 22:0.087306 23:0.090847 24:0.113254 
-1 1 1 1 1 1 1:0.368515 2:0.245359 3:0.360738 4:0.360738 5:0.361314 6:0.245676 7:0.148706 8:0.080647 9:0.079346 10:0.06492 11:0.079674 12:0.08686 13:0.296097 14:0.158857 15:0.194759 16:0.124102 17:0.090383 18:0.08656 19:0.202101 20:0.093773 21:0.194893 22:0.087754 23:0.093773 24:0.117424 
-1 1 1 1 1 1 1:0.356389 2:0.247085 3:0.377895 4:0.363433 5:0.370912 6:0.247192 7:0.145344 8:0.082859 9:0.094753 10:0.072672 11:0.087509 12:0.087509 13:0.283514 14:0.157214 15:0.189087 16:0.098845 17:0.094753 18:0.101741 19:0.196214 20:0.094753 21:0.18168 22:0.094753 23:0.0975 24:0.109008 
-1 1 1 1 1 1 1:0.360532 2:0.254396 3:0.367319 4:0.367387 5:0.367591 6:0.254396 7:0.151173 8:0.08054 9:0.084766 10:0.077702 11:0.084766 12:0.085935 13:0.282906 14:0.15874 15:0.190723 16:0.101876 17:0.092101 18:0.09183 19:0.190723 20:0.099146 21:0.183795 22:0.099146 23:0.092101 24:0.105957 
-1 1 1 1 1 1 1:0.361897 2:0.245893 3:0.36884 4:0.36168 5:0.369123 6:0.253229 7:0.154775 8:0.080858 9:0.086786 10:0.072321 11:0.086786 12:0.079882 13:0.289376 14:0.156455 15:0.188036 16:0.104304 17:0.094296 18:0.094018 19:0.195268 20:0.094296 21:0.188175 22:0.094296 23:0.094296 24:0.108482 
-1 1 1 1 1 1 1:0.364247 2:0.249644 3:0.363688 4:0.35656 5:0.363898 6:0.249644 7:0.141522 8:0.081292 9:0.085557 10:0.064168 11:0.078751 12:0.085854 13:0.293102 14:0.162584 15:0.199634 16:0.122665 17:0.089336 18:0.085557 19:0.206763 20:0.085854 21:0.192636 22:0.085854 23:0.086149 24:0.120996 
-1 1 1 1 1 1 1:0.366245 2:0.248599 3:0.35835 4:0.35835 5:0.358574 6:0.248707 7:0.145134 8:0.083367 9:0.080429 10:0.065806 11:0.073482 12:0.088045 13:0.300583 14:0.166733 15:0.197417 16:0.121692 17:0.098097 18:0.087741 19:0.204859 20:0.087741 21:0.190246 22:0.088045 23:0.088348 24:0.119027 
-1 1 1 1 1 1 1:0.353251 2:0.252215 3:0.374566 4:0.360232 5:0.367645 6:0.259715 7:0.148498 8:0.084311 9:0.093642 10:0.072032 11:0.093642 12:0.087631 13:0.288488 14:0.155829 15:0.18008 16:0.10007 17:0.097974 18:0.100845 19:0.194486 20:0.093918 21:0.180224 22:0.093918 23:0.10007 24:0.108048 
-1 1 1 1 1 1 1:0.364114 2:0.249834 3:0.371182 4:0.356978 5:0.364324 6:0.257072 7:0.152763 8:0.081387 9:0.085657 10:0.071381 11:0.085657 12:0.079807 13:0.29275 14:0.158492 15:0.185591 16:0.108959 17:0.09307 18:0.099934 19:0.192729 20:0.09307 21:0.185728 22:0.09307 23:0.09307 24:0.107072 
-1 1 1 1 1 1 1:0.357794 2:0.250255 3:0.364658 4:0.364728 5:0.372426 6:0.250358 7:0.143003 8:0.081524 9:0.093227 10:0.071502 11:0.086099 12:0.086985 13:0.286364 14:0.158759 15:0.185904 16:0.109142 17:0.099333 18:0.093227 19:0.200332 20:0.092952 21:0.185904 22:0.094046 23:0.095929 24:0.111689 
-1 1 1 1 1 1 1:0.355212 2:0.246422 3:0.369633 4:0.362675 5:0.362675 6:0.246529 7:0.149415 8:0.081032 9:0.079725 10:0.072839 11:0.079725 12:0.080054 13:0.297509 14:0.160925 15:0.195688 16:0.114596 17:0.090814 18:0.09422 19:0.202936 20:0.087274 21:0.195822 22:0.087274 23:0.087574 24:0.117984 
-1 1 1 1 1 1 1:0.359292 2:0.24152 3:0.36594 4:0.358696 5:0.366598 6:0.248947 7:0.145274 8:0.083447 9:0.08813 10:0.073188 11:0.080839 12:0.08813 13:0.300427 14:0.16118 15:0.190289 16:0.121809 17:0.098192 18:0.095425 19:0.190289 20:0.095425 21:0.18297 22:0.096264 23:0.098192 24:0.120037 
-1 1 1 1 1 1 1:0.357557 2:0.242702 3:0.364124 4:0.364124 5:0.364683 6:0.242807 7:0.14716 8:0.079809 9:0.078845 10:0.064245 11:0.078845 12:0.085957 13:0.293453 14:0.162778 15:0.199873 16:0.122812 17:0.092798 18:0.08566 19:0.207011 20:0.093072 21:0.2 22:0.085957 23:0.083552 24:0.121141 
-1 1 1 1 1 1 1:0.358839 2:0.250839 3:0.365359 4:0.365429 5:0.373142 6:0.250839 7:0.143278 8:0.081681 9:0.093406 10:0.071639 11:0.086265 12:0.087153 13:0.286914 14:0.159065 15:0.186262 16:0.109352 17:0.093406 18:0.093406 19:0.193558 20:0.100295 21:0.179098 22:0.101313 23:0.099524 24:0.107459 
-1 1 1 1 1 1 1:0.359879 2:0.251714 3:0.366783 4:0.366854 5:0.367417 6:0.251817 7:0.143837 8:0.081999 9:0.09377 10:0.071918 11:0.086302 12:0.080407 13:0.288032 14:0.155583 15:0.186987 16:0.103722 17:0.09377 18:0.093494 19:0.201499 20:0.093494 21:0.186987 22:0.087492 23:0.096488 24:0.11234 
-1 1 1 1 1 1 1:0.350897 2:0.25229 3:0.371284 4:0.364346 5:0.371878 6:0.25229 7:0.145772 8:0.079873 9:0.091339 10:0.070054 11:0.091339 12:0.092141 13:0.280564 14:0.161275 15:0.189144 16:0.106932 17:0.097321 18:0.091339 19:0.196275 20:0.098075 21:0.189144 22:0.092141 23:0.093987 24:0.109427 
-1 1 1 1 1 1 1:0.353194 2:0.25349 3:0.373193 4:0.359179 5:0.366761 6:0.253587 7:0.150692 8:0.087097 9:0.084497 10:0.070414 11:0.084789 12:0.084789 13:0.282446 14:0.167963 15:0.197284 16:0.101552 17:0.091808 18:0.091538 19:0.197284 20:0.091538 21:0.190248 22:0.092615 23:0.09447 24:0.10999 
-1 1 1 1 1 1 1:0.357886 2:0.247972 3:0.36458 4:0.357292 5:0.365163 6:0.247972 7:0.144705 8:0.08312 9:0.080522 10:0.065611 11:0.080522 12:0.088688 13:0.299695 14:0.160549 15:0.189544 16:0.121332 17:0.091345 18:0.094772 19:0.204254 20:0.087482 21:0.196969 22:0.087785 23:0.085329 24:0.123718 
-1 1 1 1 1 1 1:0.361997 2:0.24548 3:0.368061 4:0.353701 5:0.361132 6:0.252694 7:0.14878 8:0.082285 9:0.079713 10:0.065352 11:0.079386 12:0.086903 13:0.296683 14:0.166145 15:0.194856 16:0.110161 17:0.090427 18:0.093819 19:0.202073 20:0.086603 21:0.194856 22:0.086903 23:0.093819 24:0.122899 
-1 1 1 1 1 1 1:0.358068 2:0.250448 3:0.372094 4:0.365008 5:0.365569 6:0.25055 7:0.148899 8:0.080003 9:0.086165 10:0.071913 11:0.093298 12:0.087052 13:0.286583 14:0.158881 15:0.178891 16:0.105652 17:0.1032 18:0.100434 19:0.193202 20:0.100179 21:0.186047 22:0.094118 23:0.099409 24:0.107335 
